{"learner":{"attributes":{},"feature_names":["work_hours_per_week","meetings_per_day","work_life_balance_score","job_satisfaction_score","deadline_pressure_score","autonomy_score","stress_score","social_support_score","age","stress_x_support","hours_over_50","meeting_load_ratio","gender_female","gender_male","gender_non-binary","gender_prefer not to say"],"feature_types":["int","float","float","float","float","float","float","float","int","float","int","float","int","int","int","int"],"gradient_booster":{"model":{"cats":{"enc":[],"feature_segments":[],"sorted_idx":[]},"gbtree_model_param":{"num_parallel_tree":"1","num_trees":"300"},"iteration_indptr":[0,1,2,3,4,5,6,7,8,9,10,11,12,13,14,15,16,17,18,19,20,21,22,23,24,25,26,27,28,29,30,31,32,33,34,35,36,37,38,39,40,41,42,43,44,45,46,47,48,49,50,51,52,53,54,55,56,57,58,59,60,61,62,63,64,65,66,67,68,69,70,71,72,73,74,75,76,77,78,79,80,81,82,83,84,85,86,87,88,89,90,91,92,93,94,95,96,97,98,99,100,101,102,103,104,105,106,107,108,109,110,111,112,113,114,115,116,117,118,119,120,121,122,123,124,125,126,127,128,129,130,131,132,133,134,135,136,137,138,139,140,141,142,143,144,145,146,147,148,149,150,151,152,153,154,155,156,157,158,159,160,161,162,163,164,165,166,167,168,169,170,171,172,173,174,175,176,177,178,179,180,181,182,183,184,185,186,187,188,189,190,191,192,193,194,195,196,197,198,199,200,201,202,203,204,205,206,207,208,209,210,211,212,213,214,215,216,217,218,219,220,221,222,223,224,225,226,227,228,229,230,231,232,233,234,235,236,237,238,239,240,241,242,243,244,245,246,247,248,249,250,251,252,253,254,255,256,257,258,259,260,261,262,263,264,265,266,267,268,269,270,271,272,273,274,275,276,277,278,279,280,281,282,283,284,285,286,287,288,289,290,291,292,293,294,295,296,297,298,299,300],"tree_info":[0,0,0,0,0,0,0,0,0,0,0,0,0,0,0,0,0,0,0,0,0,0,0,0,0,0,0,0,0,0,0,0,0,0,0,0,0,0,0,0,0,0,0,0,0,0,0,0,0,0,0,0,0,0,0,0,0,0,0,0,0,0,0,0,0,0,0,0,0,0,0,0,0,0,0,0,0,0,0,0,0,0,0,0,0,0,0,0,0,0,0,0,0,0,0,0,0,0,0,0,0,0,0,0,0,0,0,0,0,0,0,0,0,0,0,0,0,0,0,0,0,0,0,0,0,0,0,0,0,0,0,0,0,0,0,0,0,0,0,0,0,0,0,0,0,0,0,0,0,0,0,0,0,0,0,0,0,0,0,0,0,0,0,0,0,0,0,0,0,0,0,0,0,0,0,0,0,0,0,0,0,0,0,0,0,0,0,0,0,0,0,0,0,0,0,0,0,0,0,0,0,0,0,0,0,0,0,0,0,0,0,0,0,0,0,0,0,0,0,0,0,0,0,0,0,0,0,0,0,0,0,0,0,0,0,0,0,0,0,0,0,0,0,0,0,0,0,0,0,0,0,0,0,0,0,0,0,0,0,0,0,0,0,0,0,0,0,0,0,0,0,0,0,0,0,0,0,0,0,0,0,0,0,0,0,0,0,0,0,0,0,0,0,0,0,0,0,0,0,0],"trees":[{"base_weights":[-6.211375E-3,-4.8984998E-1,5.9730493E-2,-6.9643795E-1,-3.636705E-1,-9.608451E-2,8.804748E-2,-7.76146E-1,-6.1020964E-1,-4.762881E-1,-2.4616647E-1,-1.9955893E-1,-3.5695903E-2,4.588674E-2,9.731084E-2,-4.1725587E-2,-7.1555555E-1,-6.931778E-1,-5.300542E-1,-3.8909313E-1,-5.300542E-1,-2.1505974E-1,-3.5640624E-1,-2.1505974E-1,-1.1762741E-1,-9.675496E-2,-4.0185153E-3,-4.0185153E-3,6.0855325E-2,9.000312E-2,9.924956E-2,-3.8751684E-2,-3.465889E-2,-3.0580802E-2,-3.465889E-2,-2.6502712E-2,-3.0193547E-2,-4.595737E-1,-3.6122727E-1,-4.595737E-1,-5.300542E-1,-1.0752987E-2,-2.694215E-1,-3.6122727E-1,-2.8573298E-1,-1.6634357E-1,-2.1505974E-1,-1.1762741E-1,-1.6634357E-1,-1.1762741E-1,-5.0386738E-2,-4.0185153E-3,-5.0386738E-2,1.7223202E-2,-4.0185153E-3,7.159879E-2,4.456477E-2,7.498479E-2,9.462634E-2,9.677901E-2,4.9920236E-3,-2.2978684E-2,-2.0520024E-2,-2.0520024E-2,-1.8061364E-2,-2.4740698E-2,-2.2978684E-2,-2.6502712E-2,-2.4740698E-2,-1.4286649E-2,-1.2112031E-2,-1.8061364E-2,-1.6174007E-2,-1.4286649E-2,-1.6174007E-2,-8.317179E-3,-9.535084E-3,-9.535084E-3,-1.0752987E-2,-5.8813705E-3,-7.0992745E-3,-8.317179E-3,-7.0992745E-3,-4.2003538E-3,-5.8813705E-3,-3.537037E-3,-2.519337E-3,-2.0092577E-4,-1.1950547E-3,-2.519337E-3,-1.3601313E-3,3.3011715E-4,1.4209202E-3,-2.0092577E-4,3.3011715E-4,2.904089E-3,3.5799395E-3,1.4209202E-3,2.904089E-3,4.240278E-3,3.5799395E-3,4.731317E-3,4.240278E-3,4.915487E-3,4.731317E-3],"categories":[],"categories_nodes":[],"categories_segments":[],"categories_sizes":[],"default_left":[0,0,0,0,0,0,0,0,0,0,0,0,0,0,0,0,0,0,0,0,0,0,0,0,0,0,0,0,0,0,0,0,0,0,0,0,0,0,0,0,0,0,0,0,0,0,0,0,0,0,0,0,0,0,0,0,0,0,0,0,0,0,0,0,0,0,0,0,0,0,0,0,0,0,0,0,0,0,0,0,0,0,0,0,0,0,0,0,0,0,0,0,0,0,0,0,0,0,0,0,0,0,0,0,0],"id":0,"left_children":[1,3,5,7,9,11,13,15,17,19,21,23,25,27,29,-1,31,33,35,37,39,41,43,45,47,49,51,53,55,57,59,-1,-1,-1,-1,-1,-1,61,63,65,67,-1,69,71,73,75,77,79,81,83,85,87,89,91,93,95,97,99,101,103,-1,-1,-1,-1,-1,-1,-1,-1,-1,-1,-1,-1,-1,-1,-1,-1,-1,-1,-1,-1,-1,-1,-1,-1,-1,-1,-1,-1,-1,-1,-1,-1,-1,-1,-1,-1,-1,-1,-1,-1,-1,-1,-1,-1,-1],"loss_changes":[1.5947904E3,1.5614966E2,1.9417226E2,1.5155762E1,4.920227E1,4.228391E1,1.4539246E1,3.5687256E0,9.552521E0,1.0434692E1,1.0973312E1,1.2374382E1,8.696279E0,6.414837E0,4.236145E-1,0E0,2.071106E0,6.6381836E-1,5.636444E-1,4.3336487E0,2.4995117E0,1.0264816E0,3.0406952E0,1.1472397E0,1.5047455E0,3.5036964E0,2.4279637E0,2.5672266E-1,1.1153717E0,4.8783875E-1,2.5512695E-2,0E0,0E0,0E0,0E0,0E0,0E0,7.1756744E-1,4.4049072E-1,1.7173767E-2,5.7455444E-1,0E0,1.1795444E0,5.691376E-1,7.3415756E-2,9.801221E-2,1.4162445E-1,3.3548737E-1,2.2321224E-1,8.7028885E-1,1.0931814E-1,1.4387925E-1,2.5310564E-1,1.4711411E-1,3.7774622E-2,2.3186302E-1,8.674207E-1,2.151308E-1,4.4460297E-2,2.6222229E-2,0E0,0E0,0E0,0E0,0E0,0E0,0E0,0E0,0E0,0E0,0E0,0E0,0E0,0E0,0E0,0E0,0E0,0E0,0E0,0E0,0E0,0E0,0E0,0E0,0E0,0E0,0E0,0E0,0E0,0E0,0E0,0E0,0E0,0E0,0E0,0E0,0E0,0E0,0E0,0E0,0E0,0E0,0E0,0E0,0E0],"parents":[2147483647,0,0,1,1,2,2,3,3,4,4,5,5,6,6,7,7,8,8,9,9,10,10,11,11,12,12,13,13,14,14,16,16,17,17,18,18,19,19,20,20,21,21,22,22,23,23,24,24,25,25,26,26,27,27,28,28,29,29,30,30,37,37,38,38,39,39,40,40,42,42,43,43,44,44,45,45,46,46,47,47,48,48,49,49,50,50,51,51,52,52,53,53,54,54,55,55,56,56,57,57,58,58,59,59],"right_children":[2,4,6,8,10,12,14,16,18,20,22,24,26,28,30,-1,32,34,36,38,40,42,44,46,48,50,52,54,56,58,60,-1,-1,-1,-1,-1,-1,62,64,66,68,-1,70,72,74,76,78,80,82,84,86,88,90,92,94,96,98,100,102,104,-1,-1,-1,-1,-1,-1,-1,-1,-1,-1,-1,-1,-1,-1,-1,-1,-1,-1,-1,-1,-1,-1,-1,-1,-1,-1,-1,-1,-1,-1,-1,-1,-1,-1,-1,-1,-1,-1,-1,-1,-1,-1,-1,-1,-1],"split_conditions":[4.4E0,3.3E0,5.6E0,2.7E0,4.5E1,4.4E1,6.5E0,2.2E0,4.5E1,5.5E0,6.6E0,5E0,4.9E0,4.2E1,7.3E0,-8.9999996E-2,4.4E1,3.4E0,6.9E0,3.8E0,4.3E0,5.7E0,4.1E0,3.6E0,7E0,4.9E1,7.1E0,5.3E0,5.9E0,4.4E1,7.9E0,-8.9999996E-2,-8.9999996E-2,-8.1999995E-2,-8.9999996E-2,-8.099999E-2,-8.9999996E-2,4.3E1,3.8E1,4E1,4.2E0,-4E-2,3.9E0,5.4E1,8E0,3.4E1,3.3E0,6.9E0,4.3E1,6.2E0,5.1E1,6.4E0,4.9E1,3.9E1,4.1E1,4.4E1,6E0,6.1E0,1E1,6.8E0,1.85E-1,-8.9999996E-2,-8E-2,-8.9999996E-2,-7.5E-2,-8.9999996E-2,-8E-2,-8.9999996E-2,-8.9999996E-2,-8.1999995E-2,-6.6E-2,-8E-2,-5.25E-2,-6.299999E-2,-8.9999996E-2,-3.4999996E-2,-4.6499997E-2,-4.8499994E-2,-8E-2,-2E-2,-4.35E-2,-7E-2,-4E-2,-2E-2,-5.1499993E-2,-1.4999998E-2,5.0000013E-3,1.4999998E-2,-1.4999998E-2,-2.9999996E-2,-4.999995E-3,-6.499994E-3,1.4999998E-2,-2.5E-2,5.0000013E-3,2.5E-2,5.5000007E-2,1.4999998E-2,4E-2,5.5000007E-2,3.3000007E-2,8.5E-2,3.5000004E-2,1.15E-1,8.9999996E-2],"split_indices":[6,6,6,6,0,0,6,6,0,7,7,6,6,0,6,0,0,7,7,6,5,7,6,7,7,0,7,7,7,0,6,0,0,0,0,0,0,0,0,0,6,0,6,0,3,8,5,5,0,7,0,7,0,0,0,0,6,7,7,7,0,0,0,0,0,0,0,0,0,0,0,0,0,0,0,0,0,0,0,0,0,0,0,0,0,0,0,0,0,0,0,0,0,0,0,0,0,0,0,0,0,0,0,0,0],"split_type":[0,0,0,0,0,0,0,0,0,0,0,0,0,0,0,0,0,0,0,0,0,0,0,0,0,0,0,0,0,0,0,0,0,0,0,0,0,0,0,0,0,0,0,0,0,0,0,0,0,0,0,0,0,0,0,0,0,0,0,0,0,0,0,0,0,0,0,0,0,0,0,0,0,0,0,0,0,0,0,0,0,0,0,0,0,0,0,0,0,0,0,0,0,0,0,0,0,0,0,0,0,0,0,0,0],"sum_hessian":[5.0004E4,5.999E3,4.4005E4,2.273E3,3.726E3,6.767E3,3.7238E4,1.177E3,1.096E3,1.901E3,1.825E3,2.493E3,4.274E3,6.709E3,3.0529E4,5.93E2,5.84E2,6.15E2,4.81E2,8.15E2,1.086E3,1.186E3,6.39E2,1.199E3,1.294E3,1.509E3,2.765E3,1.215E3,5.494E3,6.411E3,2.4118E4,2.9E2,2.94E2,4.7E1,5.68E2,3.27E2,1.54E2,3.05E2,5.1E2,1.87E2,8.99E2,8.24E2,3.62E2,4.27E2,2.12E2,1.55E2,1.044E3,1.016E3,2.78E2,9.44E2,5.65E2,2.122E3,6.43E2,5.68E2,6.47E2,3.094E3,2.4E3,1.642E3,4.769E3,4.687E3,1.9431E4,2.19E2,8.6E1,8.4E1,4.26E2,4.9E1,1.38E2,7.2E2,1.79E2,1.55E2,2.07E2,3.91E2,3.6E1,2.03E2,9E0,1.29E2,2.6E1,8.8E1,9.56E2,7.04E2,3.12E2,2.19E2,5.9E1,5.48E2,3.96E2,2.69E2,2.96E2,1.759E3,3.63E2,3.73E2,2.7E2,2.06E2,3.62E2,4.77E2,1.7E2,4.92E2,2.602E3,1.092E3,1.308E3,1.107E3,5.35E2,4.733E3,3.6E1,3.63E3,1.057E3],"tree_param":{"num_deleted":"0","num_feature":"16","num_nodes":"105","size_leaf_vector":"1"}},{"base_weights":[-4.2006397E-4,-4.628065E-1,6.273108E-2,-6.783605E-1,-3.3288217E-1,-7.524824E-2,8.802881E-2,-7.6714647E-1,-5.814509E-1,-4.432613E-1,-2.1512328E-1,-1.5885416E-1,-2.729152E-2,4.4244725E-2,9.6512705E-2,-8.21732E-1,-7.0719296E-1,-6.7429864E-1,-5.056213E-1,-5.056213E-1,-3.7336022E-1,-2.000377E-1,-2.8281102E-1,-2.000377E-1,-9.307284E-2,-9.307284E-2,-6.479603E-3,6.3902847E-3,6.2475964E-2,8.602697E-2,9.915536E-2,-3.9967813E-2,-4.4353742E-2,-3.8223125E-2,-3.371493E-2,-2.9498E-2,-3.371493E-2,-5.056213E-1,-2.9498E-2,-5.056213E-1,-4.3949077E-1,-3.2919228E-1,-4.3949077E-1,-2.2953019E-1,-1.0001886E-2,-3.2919228E-1,-2.4142435E-1,-1.4655527E-1,-2.000377E-1,-9.307284E-2,-1.4655527E-1,-9.307284E-2,-4.9776223E-2,6.3902847E-3,-4.9776223E-2,6.3902847E-3,3.3200003E-2,7.037871E-2,4.163488E-2,7.037871E-2,9.259117E-2,9.328414E-2,9.948788E-2,-2.5281066E-2,-2.7389532E-2,-2.3627803E-2,-2.5281066E-2,-2.197454E-2,-2.3627803E-2,-1.9217078E-2,-1.6459614E-2,-1.9217078E-2,-2.197454E-2,-1.0739197E-2,-1.2071217E-2,-1.6459614E-2,-1.4265415E-2,-1.4265415E-2,-1.2071217E-2,-8.664824E-3,-7.327764E-3,-8.664824E-3,-1.0001886E-2,-5.9907027E-3,-4.653642E-3,-7.327764E-3,-5.9907027E-3,-3.5712265E-3,-4.653642E-3,-3.5712265E-3,-2.4888113E-3,-5.882351E-4,3.1951425E-4,-2.4888113E-3,-1.0846484E-3,3.1951425E-4,9.897572E-4,1.7216563E-3,9.897572E-4,3.5189358E-3,2.8003398E-3,1.7216563E-3,2.8003398E-3,4.074247E-3,3.5189358E-3,4.1742288E-3,4.6295584E-3,4.6295584E-3,4.8193005E-3,4.9025463E-3,4.996933E-3],"categories":[],"categories_nodes":[],"categories_segments":[],"categories_sizes":[],"default_left":[0,0,0,0,0,0,0,0,0,0,0,0,0,0,0,0,0,0,0,0,0,0,0,0,0,0,0,0,0,0,0,0,0,0,0,0,0,0,0,0,0,0,0,0,0,0,0,0,0,0,0,0,0,0,0,0,0,0,0,0,0,0,0,0,0,0,0,0,0,0,0,0,0,0,0,0,0,0,0,0,0,0,0,0,0,0,0,0,0,0,0,0,0,0,0,0,0,0,0,0,0,0,0,0,0,0,0,0,0,0,0],"id":1,"left_children":[1,3,5,7,9,11,13,15,17,19,21,23,25,27,29,31,33,35,37,39,41,43,45,47,49,51,53,55,57,59,61,-1,-1,-1,-1,-1,-1,63,-1,65,67,69,71,73,-1,75,77,79,81,83,85,87,89,91,93,95,97,99,101,103,105,107,109,-1,-1,-1,-1,-1,-1,-1,-1,-1,-1,-1,-1,-1,-1,-1,-1,-1,-1,-1,-1,-1,-1,-1,-1,-1,-1,-1,-1,-1,-1,-1,-1,-1,-1,-1,-1,-1,-1,-1,-1,-1,-1,-1,-1,-1,-1,-1,-1],"loss_changes":[1.4667567E3,1.688164E2,1.542721E2,1.9077148E1,4.888159E1,2.745248E1,1.3868988E1,3.2837524E0,1.1516235E1,9.520142E0,6.759201E0,1.4909306E1,7.0770426E0,4.3962097E0,8.583679E-1,1.8569946E-1,2.391327E0,3.326416E-1,1.48732E0,2.3999176E0,5.3481445E0,8.958626E-2,5.454918E0,1.758461E0,1.2978687E0,1.100851E0,3.6347604E0,5.390299E-1,1.2513275E0,7.560921E-1,3.9505005E-2,0E0,0E0,0E0,0E0,0E0,0E0,1.4160156E-1,0E0,1.4387512E-1,1.6517639E-3,1.5179443E0,5.154419E-1,3.231659E-1,0E0,6.3983154E-1,7.558708E-1,6.843948E-2,1.5859222E-1,2.734847E-1,1.5112925E-1,1.375475E-1,1.4147347E-1,2.745189E-1,1.139523E0,1.4164463E-1,3.0147225E-1,6.652355E-2,6.168988E-1,1.3747883E-1,3.712082E-2,2.08292E-2,5.508423E-3,0E0,0E0,0E0,0E0,0E0,0E0,0E0,0E0,0E0,0E0,0E0,0E0,0E0,0E0,0E0,0E0,0E0,0E0,0E0,0E0,0E0,0E0,0E0,0E0,0E0,0E0,0E0,0E0,0E0,0E0,0E0,0E0,0E0,0E0,0E0,0E0,0E0,0E0,0E0,0E0,0E0,0E0,0E0,0E0,0E0,0E0,0E0,0E0],"parents":[2147483647,0,0,1,1,2,2,3,3,4,4,5,5,6,6,7,7,8,8,9,9,10,10,11,11,12,12,13,13,14,14,15,15,16,16,17,17,18,18,19,19,20,20,21,21,22,22,23,23,24,24,25,25,26,26,27,27,28,28,29,29,30,30,37,37,39,39,40,40,41,41,42,42,43,43,45,45,46,46,47,47,48,48,49,49,50,50,51,51,52,52,53,53,54,54,55,55,56,56,57,57,58,58,59,59,60,60,61,61,62,62],"right_children":[2,4,6,8,10,12,14,16,18,20,22,24,26,28,30,32,34,36,38,40,42,44,46,48,50,52,54,56,58,60,62,-1,-1,-1,-1,-1,-1,64,-1,66,68,70,72,74,-1,76,78,80,82,84,86,88,90,92,94,96,98,100,102,104,106,108,110,-1,-1,-1,-1,-1,-1,-1,-1,-1,-1,-1,-1,-1,-1,-1,-1,-1,-1,-1,-1,-1,-1,-1,-1,-1,-1,-1,-1,-1,-1,-1,-1,-1,-1,-1,-1,-1,-1,-1,-1,-1,-1,-1,-1,-1,-1,-1,-1],"split_conditions":[4.4E0,3.3E0,5.6E0,2.7E0,4.5E1,4.4E1,6.4E0,2.2E0,4.3E1,3.9E0,5.6E0,5E0,4.7E0,4.4E1,7.2E0,7.6E0,4.4E1,3.3E0,8.2E0,4.3E1,7.1E0,3.6E0,3.8E0,3.6E0,7.5E0,4.9E1,6.4E0,4.2E1,5.9E0,4.4E1,4.1E1,-8.5499994E-2,-8.5499994E-2,-8.5499994E-2,-8.5499994E-2,-8.59E-2,-8.5499994E-2,3.5E1,-8.5815005E-2,3.8E0,7.1E0,3.8E1,4.1E0,4.4E0,-2.7999997E-2,5.4E1,4.8E1,3.7E1,3.5E0,3.8E1,3.2E1,3.1E0,2.5E1,4.7E1,4.9E1,6.3E0,7.1E0,9.6E0,6E0,6E0,6.5E0,7.8E0,8E0,-8.5499994E-2,-8.5499994E-2,-7.699999E-2,-8.5499994E-2,-7.87E-2,-7.5899996E-2,-8.5499994E-2,-7.55E-2,-8.5499994E-2,-8.5499994E-2,-4.0000003E-2,-7.8E-2,-7.8E-2,-5.0047494E-2,-7.6E-2,-4.6715E-2,-4.78475E-2,-2.5789995E-2,-4.763E-2,-7.6E-2,-4.7825E-2,-1.9E-2,-6.65E-2,-6.499994E-3,-3.9999965E-3,-3.7425E-2,-1.8449998E-2,-4.749994E-3,-5.7499944E-3,1.5625E-2,-2.9249996E-2,2.4999978E-4,-1.0749996E-2,2.4357501E-2,2.8750008E-2,-5.2499934E-3,5.2250005E-2,1.7250001E-2,9.25001E-3,3.8E-2,4.725E-2,2.2249997E-2,5.8000006E-2,7.575001E-2,6.425001E-2,1.1075E-1,1.0925E-1,1.8575E-1],"split_indices":[6,6,6,6,0,0,6,6,0,6,7,6,6,0,6,7,0,7,5,0,7,6,6,7,7,0,7,0,7,0,0,0,0,0,0,0,0,8,0,7,5,0,5,7,0,0,0,0,5,0,8,7,8,0,0,6,5,5,6,7,6,6,6,0,0,0,0,0,0,0,0,0,0,0,0,0,0,0,0,0,0,0,0,0,0,0,0,0,0,0,0,0,0,0,0,0,0,0,0,0,0,0,0,0,0,0,0,0,0,0,0],"split_type":[0,0,0,0,0,0,0,0,0,0,0,0,0,0,0,0,0,0,0,0,0,0,0,0,0,0,0,0,0,0,0,0,0,0,0,0,0,0,0,0,0,0,0,0,0,0,0,0,0,0,0,0,0,0,0,0,0,0,0,0,0,0,0,0,0,0,0,0,0,0,0,0,0,0,0,0,0,0,0,0,0,0,0,0,0,0,0,0,0,0,0,0,0,0,0,0,0,0,0,0,0,0,0,0,0,0,0,0,0,0,0],"sum_hessian":[5.0229E4,6.035E3,4.4194E4,2.268E3,3.767E3,6.847E3,3.7347E4,1.18E3,1.088E3,1.943E3,1.824E3,2.495E3,4.352E3,6.063E3,3.1284E4,6.11E2,5.69E2,4.13E2,6.75E2,9.53E2,9.9E2,7.72E2,1.052E3,1.195E3,1.3E3,8.96E2,3.456E3,1.904E3,4.159E3,6.304E3,2.498E4,4.65E2,1.46E2,2.93E2,2.76E2,2.6E1,3.87E2,5.93E2,8.2E1,6.69E2,2.84E2,7.42E2,2.48E2,1.48E2,6.24E2,3.79E2,6.73E2,1.67E2,1.028E3,1.115E3,1.85E2,5.65E2,3.31E2,2.178E3,1.278E3,1.155E3,7.49E2,2.325E3,1.834E3,1.661E3,4.643E3,1.354E3,2.3626E4,5.12E2,8.1E1,9.6E1,5.73E2,1.93E2,9.1E1,1.18E2,6.24E2,4.3E1,2.05E2,6.5E1,8.3E1,3.49E2,3E1,3.15E2,3.58E2,1.6E1,1.51E2,1.03E2,9.25E2,1.58E2,9.57E2,1.46E2,3.9E1,5.1E1,5.14E2,9.1E1,2.4E2,8.32E2,1.346E3,7.38E2,5.4E2,1.025E3,1.3E2,5.48E2,2.01E2,2.255E3,7E1,9.29E2,9.05E2,1.059E3,6.02E2,5.5E2,4.093E3,4.37E2,9.17E2,5.694E3,1.7932E4],"tree_param":{"num_deleted":"0","num_feature":"16","num_nodes":"111","size_leaf_vector":"1"}},{"base_weights":[2.0914443E-3,-4.0030015E-1,6.738646E-2,-6.027538E-1,-2.4699974E-1,-5.741024E-2,8.7080404E-2,-7.095557E-1,-4.7441688E-1,-3.369488E-1,-1.6645685E-1,-1.481081E-1,-2.1552334E-2,4.4527587E-2,9.661112E-2,-7.979856E-1,-6.4404637E-1,-5.919863E-1,-4.2487678E-1,-4.0196627E-1,-2.5993377E-1,-2.2360654E-1,-1.6645685E-1,-1.6645685E-1,-8.483022E-2,-7.970065E-2,-1.7806004E-3,1.4835082E-2,6.377709E-2,8.764835E-2,9.899667E-2,-7.330612E-1,-4.157428E-2,-3.60508E-2,-5.919863E-1,-2.5421578E-2,-2.9599315E-2,-4.2487678E-1,-5.0843155E-1,-4.2487678E-1,-3.3235908E-1,-3.3095002E-1,-2.5170285E-1,-1.950317E-1,-2.5170285E-1,-1.950317E-1,-1.6645685E-1,-1.2564354E-1,-1.6645685E-1,-8.483022E-2,-1.2564354E-1,-8.483022E-2,-4.3415334E-2,1.4835082E-2,-3.7866663E-2,1.4835082E-2,3.9306086E-2,7.0549384E-2,3.9306086E-2,7.056935E-2,9.242542E-2,9.550873E-2,4.9919784E-3,-3.60508E-2,-3.911367E-2,-2.9599315E-2,-3.275463E-2,-2.1243839E-2,-2.333271E-2,-2.5421578E-2,-2.333271E-2,-1.8930897E-2,-2.1243839E-2,-1.6547501E-2,-1.8930897E-2,-1.4566322E-2,-1.6547501E-2,-1.2585143E-2,-1.4566322E-2,-9.751585E-3,-1.11683635E-2,-1.11683635E-2,-1.2585143E-2,-9.037214E-3,-9.751585E-3,-9.037214E-3,-8.322842E-3,-7.302509E-3,-6.282177E-3,-7.302509E-3,-8.322842E-3,-4.2415108E-3,-5.2618436E-3,-5.2618436E-3,-6.282177E-3,-3.2061387E-3,-4.2415108E-3,-2.0370313E-3,-3.2061387E-3,-3.9281687E-4,7.4175413E-4,-2.0370313E-3,-5.7578954E-4,7.4175413E-4,1.3535292E-3,1.9653044E-3,1.3535292E-3,2.746387E-3,3.5284676E-3,1.9653044E-3,2.746387E-3,4.074869E-3,3.5284676E-3,4.6661254E-3,4.151247E-3,4.6661254E-3,4.8837075E-3],"categories":[],"categories_nodes":[],"categories_segments":[],"categories_sizes":[],"default_left":[0,0,0,0,0,0,0,0,0,0,0,0,0,0,0,0,0,0,0,0,0,0,0,0,0,0,0,0,0,0,0,0,0,0,0,0,0,0,0,0,0,0,0,0,0,0,0,0,0,0,0,0,0,0,0,0,0,0,0,0,0,0,0,0,0,0,0,0,0,0,0,0,0,0,0,0,0,0,0,0,0,0,0,0,0,0,0,0,0,0,0,0,0,0,0,0,0,0,0,0,0,0,0,0,0,0,0,0,0,0,0,0,0,0,0,0,0],"id":2,"left_children":[1,3,5,7,9,11,13,15,17,19,21,23,25,27,29,31,33,35,37,39,41,43,45,47,49,51,53,55,57,59,61,63,-1,-1,65,-1,-1,67,69,71,73,75,77,79,81,83,85,87,89,91,93,95,97,99,101,103,105,107,109,111,113,115,-1,-1,-1,-1,-1,-1,-1,-1,-1,-1,-1,-1,-1,-1,-1,-1,-1,-1,-1,-1,-1,-1,-1,-1,-1,-1,-1,-1,-1,-1,-1,-1,-1,-1,-1,-1,-1,-1,-1,-1,-1,-1,-1,-1,-1,-1,-1,-1,-1,-1,-1,-1,-1,-1,-1],"loss_changes":[1.3165994E3,2.1698047E2,1.05967896E2,4.0974976E1,3.1484146E1,1.91102E1,1.5097961E1,9.004028E0,1.7922363E1,9.774933E0,2.9607582E0,5.8009987E0,4.843515E0,4.04844E0,6.418152E-1,9.021301E-1,7.3957825E0,7.448578E-1,7.387924E-1,3.3589325E0,2.4059334E0,3.01062E0,1.4825201E-1,8.629532E-1,3.8882613E-1,1.1498733E0,2.2561636E0,7.5944257E-1,7.3550034E-1,5.928459E-1,6.1080933E-2,2.6367188E-2,0E0,0E0,5.097351E-1,0E0,0E0,1.6031647E-1,4.6546936E-2,5.2041626E-1,1.1790199E0,4.5454025E-2,4.6645737E-1,2.014103E-1,1.1313629E-1,1.00257635E-1,5.60236E-3,1.5270758E-1,1.9678497E-1,5.07257E-2,2.5153804E-1,1.1732483E-1,4.532355E-1,4.5855623E-1,7.862809E-1,2.3066282E-1,7.045972E-2,2.718544E-1,1.745193E-1,1.3326979E-1,1.18938446E-1,4.1732788E-2,0E0,0E0,0E0,0E0,0E0,0E0,0E0,0E0,0E0,0E0,0E0,0E0,0E0,0E0,0E0,0E0,0E0,0E0,0E0,0E0,0E0,0E0,0E0,0E0,0E0,0E0,0E0,0E0,0E0,0E0,0E0,0E0,0E0,0E0,0E0,0E0,0E0,0E0,0E0,0E0,0E0,0E0,0E0,0E0,0E0,0E0,0E0,0E0,0E0,0E0,0E0,0E0,0E0,0E0,0E0],"parents":[2147483647,0,0,1,1,2,2,3,3,4,4,5,5,6,6,7,7,8,8,9,9,10,10,11,11,12,12,13,13,14,14,15,15,16,16,17,17,18,18,19,19,20,20,21,21,22,22,23,23,24,24,25,25,26,26,27,27,28,28,29,29,30,30,31,31,34,34,37,37,38,38,39,39,40,40,41,41,42,42,43,43,44,44,45,45,46,46,47,47,48,48,49,49,50,50,51,51,52,52,53,53,54,54,55,55,56,56,57,57,58,58,59,59,60,60,61,61],"right_children":[2,4,6,8,10,12,14,16,18,20,22,24,26,28,30,32,34,36,38,40,42,44,46,48,50,52,54,56,58,60,62,64,-1,-1,66,-1,-1,68,70,72,74,76,78,80,82,84,86,88,90,92,94,96,98,100,102,104,106,108,110,112,114,116,-1,-1,-1,-1,-1,-1,-1,-1,-1,-1,-1,-1,-1,-1,-1,-1,-1,-1,-1,-1,-1,-1,-1,-1,-1,-1,-1,-1,-1,-1,-1,-1,-1,-1,-1,-1,-1,-1,-1,-1,-1,-1,-1,-1,-1,-1,-1,-1,-1,-1,-1,-1,-1,-1,-1],"split_conditions":[4.6E0,3.6E0,5.6E0,3E0,4.5E1,4.3E1,6.5E0,4.3E1,4.3E1,4.2E0,4.8E1,5.3E0,4.9E0,4.5E1,7.3E0,5.4E0,2.1E0,2.9E0,8.3E0,4.2E1,3.8E1,6.1E0,3.7E0,3.8E0,6.9E0,4.6E1,6.4E0,6.3E0,7.1E0,4.3E1,7.9E0,5.3E0,-8.1225E-2,-8.1225E-2,7.1E0,-7.065E-2,-8.1225E-2,8.5E0,5E1,4.3E0,7.2E0,1.4E0,7.2E0,1E0,2.3E0,6E0,1E-1,3.9E1,3.4E0,8.3E0,5.1E0,3.3E0,6.9E0,4.7E1,4.9E1,1E0,7E0,5.8E0,5.2E1,4.5E0,6.8E0,4.4E1,1.6646251E-1,-8.1225E-2,-8.1225E-2,-8.1225E-2,-8.1225E-2,-7.2E-2,-7.35067E-2,-8.139499E-2,-7.71E-2,-7.1674995E-2,-8.1225E-2,-7.1724996E-2,-8.1225E-2,1.8775005E-2,-8.1225E-2,-6.18675E-2,-8.1225E-2,-4.16E-2,-6.432288E-2,-7.219999E-2,-7.1017615E-2,-4.8E-2,-7.2E-2,-3.9117824E-2,-3.3733897E-2,-3.3070125E-2,-1.2102499E-2,-2.83861E-2,-6.22E-2,-3.0499937E-3,-5.2374996E-2,-2.586746E-3,-4.9374994E-2,2.1635E-3,-4.795625E-2,-9.012497E-3,-2.5880745E-2,-1.8749953E-3,1.8468756E-2,-2.4349999E-2,2.3750067E-4,-7.739996E-3,1.69975E-2,2.9418215E-2,3.038737E-3,2.00525E-2,4.9637504E-2,1.3787496E-2,4.3787505E-2,5.0837506E-2,3.2237507E-2,8.1962496E-2,6.1962504E-2,7.003751E-2,1.0878749E-1],"split_indices":[6,6,6,6,0,0,6,0,0,6,0,6,6,0,6,7,6,7,7,0,0,7,6,7,5,0,7,6,7,0,6,3,0,0,7,0,0,5,0,5,7,3,7,14,3,5,1,0,5,7,7,7,7,0,0,12,5,6,0,7,7,0,0,0,0,0,0,0,0,0,0,0,0,0,0,0,0,0,0,0,0,0,0,0,0,0,0,0,0,0,0,0,0,0,0,0,0,0,0,0,0,0,0,0,0,0,0,0,0,0,0,0,0,0,0,0,0],"split_type":[0,0,0,0,0,0,0,0,0,0,0,0,0,0,0,0,0,0,0,0,0,0,0,0,0,0,0,0,0,0,0,0,0,0,0,0,0,0,0,0,0,0,0,0,0,0,0,0,0,0,0,0,0,0,0,0,0,0,0,0,0,0,0,0,0,0,0,0,0,0,0,0,0,0,0,0,0,0,0,0,0,0,0,0,0,0,0,0,0,0,0,0,0,0,0,0,0,0,0,0,0,0,0,0,0,0,0,0,0,0,0,0,0,0,0,0,0],"sum_hessian":[5.0108E4,6.995E3,4.3113E4,3.013E3,3.982E3,5.876E3,3.7237E4,1.642E3,1.371E3,1.972E3,2.01E3,1.664E3,4.212E3,6.815E3,3.0422E4,6.94E2,9.48E2,5.28E2,8.43E2,1.067E3,9.05E2,9.14E2,1.096E3,1.141E3,5.23E2,1.068E3,3.144E3,2.617E3,4.198E3,6.403E3,2.4019E4,2.44E2,4.5E2,2.86E2,6.62E2,2E1,5.08E2,7.6E2,8.3E1,5.89E2,4.78E2,1.22E2,7.83E2,5.08E2,4.06E2,8.1E1,1.015E3,1.86E2,9.55E2,3.62E2,1.61E2,3.78E2,6.9E2,2.02E3,1.124E3,2.061E3,5.56E2,3.33E3,8.68E2,1.242E3,5.161E3,4.697E3,1.9322E4,1.53E2,9.1E1,4.47E2,2.15E2,6.95E2,6.5E1,6.4E1,1.9E1,1E2,4.89E2,3.59E2,1.19E2,4E0,1.18E2,6.16E2,1.67E2,4.9E2,1.8E1,5E1,3.56E2,3.7E1,4.4E1,2.8E1,9.87E2,5.4E1,1.32E2,9.5E1,8.6E2,3.39E2,2.3E1,6.7E1,9.4E1,3.4E1,3.44E2,4.99E2,1.91E2,8.9E2,1.13E3,6.91E2,4.33E2,1.448E3,6.13E2,3.9E2,1.66E2,6.5E2,2.68E3,6.66E2,2.02E2,4.34E2,8.08E2,3.919E3,1.242E3,1.038E3,3.659E3],"tree_param":{"num_deleted":"0","num_feature":"16","num_nodes":"117","size_leaf_vector":"1"}},{"base_weights":[5.073683E-3,-1.275521E-1,5.179965E-2,-3.7876226E-2,-4.6569505E-1,7.904137E-2,2.1787193E-3,-3.7876226E-2,-1.7713326E-1,-6.5750635E-1,-3.491255E-1,4.497001E-2,9.003596E-2,-3.7876226E-2,4.0610045E-2,-1.0750474E-1,-3.7876226E-2,-2.5178564E-1,-1.0750474E-1,-7.40099E-1,-5.6916374E-1,-2.5178564E-1,-5.033159E-1,6.750298E-2,4.0610045E-2,7.3440954E-2,9.5565885E-2,-3.7876226E-2,1.3669096E-3,1.3669096E-3,4.0610045E-2,-1.0750474E-1,-7.269049E-2,-7.269049E-2,-3.7876226E-2,-1.2589282E-2,-1.7964518E-1,-1.7964518E-1,-1.0750474E-1,-7.815175E-1,-3.273157E-2,-6.546314E-1,-5.033159E-1,-3.6376518E-1,-2.5178564E-1,-3.930029E-1,-5.033159E-1,3.375149E-3,5.825748E-2,4.0610045E-2,5.4056514E-2,8.450342E-2,6.750298E-2,8.450342E-2,9.733588E-2,-3.7876226E-2,-2.217391E-2,-1.8254658E-2,1.3669096E-3,1.3669096E-3,1.0494239E-3,2.0988477E-2,4.0610045E-2,-4.504881E-3,-5.375237E-3,-3.6345243E-3,-4.504881E-3,-2.764168E-3,-3.6345243E-3,-2.3655912E-3,-1.8938113E-3,-1.0785771E-2,-8.982259E-3,-7.1787476E-3,-8.982259E-3,-7.1787476E-3,-5.375237E-3,-4.144958E-2,-3.6895305E-2,-2.8948683E-2,-3.273157E-2,-2.5165796E-2,-2.8948683E-2,-1.5388771E-2,-1.887754E-2,-1.2589282E-2,-1.5388771E-2,-2.240797E-2,-1.887754E-2,-2.5165796E-2,-2.240797E-2,2.7028257E-3,3.1440116E-3,2.366664E-3,2.0305023E-3,2.7028257E-3,2.366664E-3,4.225171E-3,3.80016E-3,3.375149E-3,3.80016E-3,4.225171E-3,4.5459825E-3,4.6102963E-3,4.970256E-3,-1.8938113E-3,-1.6323527E-3,-9.127329E-4,-1.5012535E-3,-9.127329E-4,-4.2219373E-4,6.834548E-5,-4.2219373E-4,5.588847E-4,6.834548E-5,1.5399632E-3,1.0494239E-3,1.5450645E-3,2.0305023E-3],"categories":[],"categories_nodes":[],"categories_segments":[],"categories_sizes":[],"default_left":[0,0,0,0,0,0,0,0,0,0,0,0,0,0,0,0,0,0,0,0,0,0,0,0,0,0,0,0,0,0,0,0,0,0,0,0,0,0,0,0,0,0,0,0,0,0,0,0,0,0,0,0,0,0,0,0,0,0,0,0,0,0,0,0,0,0,0,0,0,0,0,0,0,0,0,0,0,0,0,0,0,0,0,0,0,0,0,0,0,0,0,0,0,0,0,0,0,0,0,0,0,0,0,0,0,0,0,0,0,0,0,0,0,0,0,0,0,0,0],"id":3,"left_children":[1,3,5,7,9,11,13,15,17,19,21,23,25,27,29,31,33,35,37,39,41,43,45,47,49,51,53,55,57,59,61,63,65,67,69,-1,71,73,75,77,-1,79,81,83,85,87,89,-1,91,93,95,97,99,101,103,105,107,109,111,113,-1,115,117,-1,-1,-1,-1,-1,-1,-1,-1,-1,-1,-1,-1,-1,-1,-1,-1,-1,-1,-1,-1,-1,-1,-1,-1,-1,-1,-1,-1,-1,-1,-1,-1,-1,-1,-1,-1,-1,-1,-1,-1,-1,-1,-1,-1,-1,-1,-1,-1,-1,-1,-1,-1,-1,-1,-1,-1],"loss_changes":[3.103682E2,4.664859E2,5.006225E1,4.0451363E1,6.9576416E1,8.952255E0,8.4387184E1,6.852892E0,4.1645172E1,8.181335E0,3.2610733E1,6.8257256E0,1.6517181E0,8.046837E-1,1.6668358E0,2.2618074E0,2.0181656E0,5.978241E-1,1.5624008E0,3.420227E0,5.8695526E0,6.1310654E0,3.920639E0,6.1178207E-2,7.090855E-2,1.9465599E0,3.1827545E-1,5.527115E-2,2.0059262E-1,3.9602458E-1,2.598076E-1,3.738346E-1,2.0822012E-1,8.7860537E-1,2.3403168E-2,0E0,4.132509E-3,2.0585775E-1,6.7851925E-1,4.524231E-1,0E0,7.157898E-1,1.3473969E0,1.8580246E0,9.802437E-2,2.3743935E0,1.334076E-1,0E0,1.6800833E-1,3.0317307E-3,4.2348146E-2,2.161026E-3,2.1941662E-3,5.336857E-2,1.1872864E-1,7.862091E-3,2.2723493E-1,1.9945502E-2,2.4950724E-2,8.627002E-2,0E0,2.6307708E-1,2.0313263E-2,0E0,0E0,0E0,0E0,0E0,0E0,0E0,0E0,0E0,0E0,0E0,0E0,0E0,0E0,0E0,0E0,0E0,0E0,0E0,0E0,0E0,0E0,0E0,0E0,0E0,0E0,0E0,0E0,0E0,0E0,0E0,0E0,0E0,0E0,0E0,0E0,0E0,0E0,0E0,0E0,0E0,0E0,0E0,0E0,0E0,0E0,0E0,0E0,0E0,0E0,0E0,0E0,0E0,0E0,0E0,0E0],"parents":[2147483647,0,0,1,1,2,2,3,3,4,4,5,5,6,6,7,7,8,8,9,9,10,10,11,11,12,12,13,13,14,14,15,15,16,16,17,17,18,18,19,19,20,20,21,21,22,22,23,23,24,24,25,25,26,26,27,27,28,28,29,29,30,30,31,31,32,32,33,33,34,34,36,36,37,37,38,38,39,39,41,41,42,42,43,43,44,44,45,45,46,46,48,48,49,49,50,50,51,51,52,52,53,53,54,54,55,55,56,56,57,57,58,58,59,59,61,61,62,62],"right_children":[2,4,6,8,10,12,14,16,18,20,22,24,26,28,30,32,34,36,38,40,42,44,46,48,50,52,54,56,58,60,62,64,66,68,70,-1,72,74,76,78,-1,80,82,84,86,88,90,-1,92,94,96,98,100,102,104,106,108,110,112,114,-1,116,118,-1,-1,-1,-1,-1,-1,-1,-1,-1,-1,-1,-1,-1,-1,-1,-1,-1,-1,-1,-1,-1,-1,-1,-1,-1,-1,-1,-1,-1,-1,-1,-1,-1,-1,-1,-1,-1,-1,-1,-1,-1,-1,-1,-1,-1,-1,-1,-1,-1,-1,-1,-1,-1,-1,-1,-1],"split_conditions":[2.573E1,5.1E0,6.5E0,4.2E0,1.898E1,3.15E1,4.32E1,4E1,1.824E1,1.548E1,6.3E0,5E0,3.6E1,5.4E1,4E1,1.548E1,7.8E0,5.4E1,3.8E1,4.9E1,4.4E1,4.4E1,6.9E0,4.6E0,5.1E1,5.4E0,4.3E1,5.2E1,3.225E1,5.88E1,4.526E1,2.5E0,3.9E0,1.5E0,4.1E1,-7.716375E-2,9.8E0,3.5E0,2.052E1,1.222E1,-7.716375E-2,5.7E0,7.1E0,5.6E0,4.7E1,4.3E1,5.5E1,9.7449385E-2,4.4E1,1.3E0,5.7E0,1E0,4.1E1,4.347E1,4.088E1,4.2E1,7.2E0,5.7E1,8.9E0,7.6E0,5.752163E-2,7.8E0,4.611E1,-2.3378147E-2,-7.716375E-2,1.217544E-2,-6.424162E-2,4.175539E-2,-7.716375E-2,-2.4340486E-2,3.5618376E-2,-6.2163748E-2,2.9270379E-2,1.8270548E-2,-7.0818745E-2,-4.452E-2,-4.8021856E-3,-7.716375E-2,-7.716375E-2,-7.716375E-2,-7.716375E-2,-7.61592E-2,-7.716375E-2,-7.4332334E-2,-7.716375E-2,-4.898912E-2,-8.4035374E-2,-7.716375E-2,-6.8056785E-2,-7.716375E-2,-4.7163744E-2,6.270818E-3,4.942266E-2,1.789987E-2,-2.213841E-2,4.254532E-2,3.669751E-3,9.7535625E-2,6.1864376E-2,7.7305585E-3,3.339282E-2,5.3153016E-2,9.525562E-2,9.630562E-2,1.4834812E-1,-6.4090006E-2,-1.00650005E-2,3.9103724E-2,-3.550726E-2,-6.755779E-2,4.372738E-2,2.0306224E-2,-7.871846E-2,1.6131131E-2,-6.861437E-2,2.4169726E-2,-1.7791057E-2,1.825742E-2,8.004225E-2],"split_indices":[9,7,7,7,9,9,9,0,9,9,7,7,9,0,0,9,9,0,0,0,0,0,7,7,0,7,0,0,9,9,9,7,7,7,0,0,9,5,9,9,0,7,7,7,8,0,0,0,0,5,7,15,8,9,9,9,7,0,7,7,0,7,9,0,0,0,0,0,0,0,0,0,0,0,0,0,0,0,0,0,0,0,0,0,0,0,0,0,0,0,0,0,0,0,0,0,0,0,0,0,0,0,0,0,0,0,0,0,0,0,0,0,0,0,0,0,0,0,0],"split_type":[0,0,0,0,0,0,0,0,0,0,0,0,0,0,0,0,0,0,0,0,0,0,0,0,0,0,0,0,0,0,0,0,0,0,0,0,0,0,0,0,0,0,0,0,0,0,0,0,0,0,0,0,0,0,0,0,0,0,0,0,0,0,0,0,0,0,0,0,0,0,0,0,0,0,0,0,0,0,0,0,0,0,0,0,0,0,0,0,0,0,0,0,0,0,0,0,0,0,0,0,0,0,0,0,0,0,0,0,0,0,0,0,0,0,0,0,0,0,0],"sum_hessian":[5.0081E4,1.3047E4,3.7034E4,9.926E3,3.121E3,2.3908E4,1.3126E4,7.841E3,2.085E3,1.178E3,1.943E3,5.834E3,1.8074E4,4.034E3,9.092E3,8.09E2,7.032E3,6.38E2,1.447E3,6.05E2,5.73E2,1.166E3,7.77E2,3.919E3,1.915E3,4.521E3,1.3553E4,3.812E3,2.22E2,4.02E2,8.69E3,4.01E2,4.08E2,3.86E2,6.646E3,6.21E2,1.7E1,8.6E1,1.361E3,5.13E2,9.2E1,2.68E2,3.05E2,4.93E2,6.73E2,3.42E2,4.35E2,3.151E3,7.68E2,1.673E3,2.42E2,3.215E3,1.306E3,1.505E3,1.2048E4,3.583E3,2.29E2,4.5E1,1.77E2,2.77E2,1.25E2,5.4E2,8.15E3,1.91E2,2.1E2,3.32E2,7.6E1,2.52E2,1.34E2,2.78E2,6.368E3,1E0,1.6E1,1.2E1,7.4E1,2.94E2,1.067E3,2.37E2,2.76E2,9.2E1,1.76E2,2.35E2,7E1,2.5E2,2.43E2,6.67E2,6E0,1.31E2,2.11E2,4.28E2,7E0,2.5E2,5.18E2,7E0,1.666E3,1.47E2,9.5E1,3.188E3,2.7E1,1.254E3,5.2E1,8.7E2,6.35E2,3.476E3,8.572E3,3.244E3,3.39E2,1.23E2,1.06E2,3.6E1,9E0,1.7E2,7E0,1.43E2,1.34E2,3.57E2,1.83E2,2.32E2,7.918E3],"tree_param":{"num_deleted":"0","num_feature":"16","num_nodes":"119","size_leaf_vector":"1"}},{"base_weights":[6.694148E-3,-4.4454688E-1,5.7671856E-2,-6.582826E-1,-3.4289846E-1,-8.814572E-2,8.4564306E-2,-7.632721E-1,-5.974138E-1,-4.2766738E-1,-2.8785133E-1,-1.4361544E-1,-3.6403626E-2,4.1217927E-2,9.522237E-2,-7.7875E-1,-3.4017146E-2,-5.005905E-1,-6.1970717E-1,-3.6764705E-1,-4.8137254E-1,-2.4751824E-1,-3.5775936E-1,-1.6236162E-1,-9.000953E-2,-9.577174E-3,-6.782089E-2,5.464801E-2,1.769653E-2,8.4363334E-2,9.858232E-2,-3.6477324E-2,-4.0956523E-2,-2.8007442E-2,-2.5029525E-2,-5.6014884E-1,-6.4893264E-1,-4.245098E-1,-1.7887969E-2,-5.005905E-1,-2.122549E-2,-2.0812581E-1,-2.9654604E-1,-3.5775936E-1,-1.513194E-2,-1.3365853E-1,-1.9343752E-1,-9.000953E-2,-1.2618558E-1,-3.0907169E-2,-1.7907061E-3,-3.869903E-2,-9.000953E-2,4.828098E-2,6.8220146E-2,-1.7907061E-3,3.617227E-2,8.968054E-2,7.411147E-2,9.38817E-2,4.976559E-3,-2.8007442E-2,-3.4017146E-2,-3.0119864E-2,-3.4017146E-2,-1.955673E-2,-2.122549E-2,-2.312751E-2,-2.5029525E-2,-9.671876E-3,-1.2616797E-2,-1.2616797E-2,-1.513194E-2,-1.6509954E-2,-1.7887969E-2,-6.3092792E-3,-8.1774015E-3,-8.1774015E-3,-9.671876E-3,-4.5004766E-3,-5.404878E-3,-5.404878E-3,-6.3092792E-3,-1.9349515E-3,-8.174469E-4,-8.953531E-5,-8.174469E-4,-1.9349515E-3,-3.1470587E-3,-4.5004766E-3,-3.2177144E-3,2.912528E-3,2.0293125E-3,3.4110073E-3,2.912528E-3,-8.953531E-5,8.5953914E-4,1.8086135E-3,8.5953914E-4,4.5736413E-3,4.1441764E-3,3.451258E-3,4.0948004E-3,4.809213E-3,4.5736413E-3],"categories":[],"categories_nodes":[],"categories_segments":[],"categories_sizes":[],"default_left":[0,0,0,0,0,0,0,0,0,0,0,0,0,0,0,0,0,0,0,0,0,0,0,0,0,0,0,0,0,0,0,0,0,0,0,0,0,0,0,0,0,0,0,0,0,0,0,0,0,0,0,0,0,0,0,0,0,0,0,0,0,0,0,0,0,0,0,0,0,0,0,0,0,0,0,0,0,0,0,0,0,0,0,0,0,0,0,0,0,0,0,0,0,0,0,0,0,0,0,0,0,0,0,0,0],"id":4,"left_children":[1,3,5,7,9,11,13,15,17,19,21,23,25,27,29,31,-1,33,35,37,39,41,43,45,47,49,51,53,55,57,59,-1,-1,-1,-1,61,63,65,-1,67,-1,69,71,73,-1,75,77,79,81,83,85,87,89,91,93,95,97,99,101,103,-1,-1,-1,-1,-1,-1,-1,-1,-1,-1,-1,-1,-1,-1,-1,-1,-1,-1,-1,-1,-1,-1,-1,-1,-1,-1,-1,-1,-1,-1,-1,-1,-1,-1,-1,-1,-1,-1,-1,-1,-1,-1,-1,-1,-1],"loss_changes":[1.155317E3,1.10532715E2,1.7696425E2,1.00372925E1,1.60083E1,2.0163097E1,1.7597778E1,8.406677E-1,2.5617676E0,4.2036133E0,6.2637024E0,5.852562E0,3.064664E0,2.3748732E0,1.1073914E0,8.807678E-1,0E0,1.7090607E-1,1.3367615E0,1.3551102E0,1.8485718E0,2.5842056E0,1.702713E0,3.6769562E0,6.562662E-2,6.8466634E-1,1.983593E0,7.209425E-1,1.4803487E0,3.8763428E-1,9.480286E-2,0E0,0E0,0E0,0E0,4.385147E-1,7.1035767E-1,2.047844E-1,0E0,6.614075E-1,0E0,9.551697E-1,8.892174E-1,1.6519165E-1,0E0,1.1307068E0,9.3449783E-1,1.7461538E-2,1.1880934E-2,4.0932024E-1,1.2011178E-1,2.9822004E-1,3.4966278E-1,4.250698E-1,2.8715134E-2,5.1066685E-1,5.892992E-2,8.02269E-2,1.593256E-1,3.3348083E-2,0E0,0E0,0E0,0E0,0E0,0E0,0E0,0E0,0E0,0E0,0E0,0E0,0E0,0E0,0E0,0E0,0E0,0E0,0E0,0E0,0E0,0E0,0E0,0E0,0E0,0E0,0E0,0E0,0E0,0E0,0E0,0E0,0E0,0E0,0E0,0E0,0E0,0E0,0E0,0E0,0E0,0E0,0E0,0E0,0E0],"parents":[2147483647,0,0,1,1,2,2,3,3,4,4,5,5,6,6,7,7,8,8,9,9,10,10,11,11,12,12,13,13,14,14,15,15,17,17,18,18,19,19,20,20,21,21,22,22,23,23,24,24,25,25,26,26,27,27,28,28,29,29,30,30,35,35,36,36,37,37,39,39,41,41,42,42,43,43,45,45,46,46,47,47,48,48,49,49,50,50,51,51,52,52,53,53,54,54,55,55,56,56,57,57,58,58,59,59],"right_children":[2,4,6,8,10,12,14,16,18,20,22,24,26,28,30,32,-1,34,36,38,40,42,44,46,48,50,52,54,56,58,60,-1,-1,-1,-1,62,64,66,-1,68,-1,70,72,74,-1,76,78,80,82,84,86,88,90,92,94,96,98,100,102,104,-1,-1,-1,-1,-1,-1,-1,-1,-1,-1,-1,-1,-1,-1,-1,-1,-1,-1,-1,-1,-1,-1,-1,-1,-1,-1,-1,-1,-1,-1,-1,-1,-1,-1,-1,-1,-1,-1,-1,-1,-1,-1,-1,-1,-1],"split_conditions":[4.2E0,3E0,5.5E0,2.2E0,3.6E0,4.9E0,6.5E0,1E0,4.2E0,5.8E0,6.6E0,1E0,5.9E0,6.2E0,7.4E0,5.6E0,-7.330556E-2,2.6E0,1E0,3.3E0,1E0,6.4E0,1E0,6.3E0,1E1,5.2E0,6.4E0,1E0,6E0,6.2E0,7.9E0,-7.330556E-2,-7.330556E-2,-7.658481E-2,-6.939467E-2,3.4E1,4.4E0,2.3E1,-7.217609E-2,1E0,-7.429182E-2,3.2E1,3.8E0,3.4E0,-5.172464E-2,7.7E0,4.9E0,1E1,3.5E0,1E0,6.9E0,7.1E0,1E0,5.2E0,8.6E0,1E0,5E1,7E0,1E0,6.6E0,1.5332411E-1,-6.330556E-2,-6.330556E-2,-7.330556E-2,-7.330556E-2,-6.545203E-2,-7.330556E-2,-6.435915E-2,-7.395925E-2,-5.7341516E-2,-6.3930556E-2,-6.4555556E-2,-7.140023E-2,-7.1871154E-2,-7.3586054E-2,-3.7495133E-2,-4.613972E-2,-4.4224765E-2,-6.455827E-2,1.1009119E-4,-7.9705715E-3,3.305769E-3,-8.5340515E-2,-1.9282034E-2,3.278543E-2,1.0759147E-2,-4.446822E-3,-1.1890217E-2,-2.2615492E-2,-4.0917125E-2,-2.1684752E-3,3.505472E-2,1.9754743E-2,6.727884E-2,6.262244E-3,-1.101187E-2,3.30625E-2,2.0512275E-2,-7.658372E-2,6.799191E-2,6.0281973E-2,4.486226E-2,7.986226E-2,9.5288254E-2,7.559601E-2],"split_indices":[6,6,6,6,6,6,6,10,7,7,7,10,7,7,6,7,0,6,13,6,10,5,10,7,5,6,5,10,6,7,6,0,0,0,0,8,3,8,0,13,0,8,7,5,0,5,5,7,3,10,5,7,10,5,5,10,8,5,10,7,0,0,0,0,0,0,0,0,0,0,0,0,0,0,0,0,0,0,0,0,0,0,0,0,0,0,0,0,0,0,0,0,0,0,0,0,0,0,0,0,0,0,0,0,0],"split_type":[0,0,0,0,0,0,0,0,0,0,0,0,0,0,0,0,0,0,0,0,0,0,0,0,0,0,0,0,0,0,0,0,0,0,0,0,0,0,0,0,0,0,0,0,0,0,0,0,0,0,0,0,0,0,0,0,0,0,0,0,0,0,0,0,0,0,0,0,0,0,0,0,0,0,0,0,0,0,0,0,0,0,0,0,0,0,0,0,0,0,0,0,0,0,0,0,0,0,0,0,0,0,0,0,0],"sum_hessian":[5.0222E4,5.097E3,4.5125E4,1.641E3,3.456E3,7.026E3,3.8099E4,5.98E2,1.043E3,1.358E3,2.098E3,3.39E3,3.636E3,7.52E3,3.0579E4,5.59E2,3.9E1,1.56E2,8.87E2,6.45E2,7.13E2,1.369E3,7.29E2,2.98E3,4.1E2,1.962E3,1.674E3,4.786E3,2.734E3,7.232E3,2.3347E4,2.15E2,3.44E2,5.7E1,9.9E1,2.79E2,6.08E2,2.79E2,3.66E2,6.4E2,7.3E1,7.62E2,6.07E2,6.47E2,8.2E1,1.844E3,1.136E3,4.01E2,9E0,9.47E2,1.015E3,1.061E3,6.13E2,4.042E3,7.44E2,1.355E3,1.379E3,4.757E3,2.475E3,3.938E3,1.9409E4,2.37E2,4.2E1,2.91E2,3.17E2,4.6E1,2.33E2,2.33E2,4.07E2,5.98E2,1.64E2,1.29E2,4.78E2,5.4E1,5.93E2,1.48E3,3.64E2,3.45E2,7.91E2,3.95E2,6E0,3E0,6E0,8.18E2,1.29E2,6.77E2,3.38E2,5.52E2,5.09E2,5.12E2,1.01E2,1.382E3,2.66E3,6.79E2,6.5E1,1.09E3,2.65E2,1.373E3,6E0,3.35E3,1.407E3,1.907E3,5.68E2,2.908E3,1.03E3],"tree_param":{"num_deleted":"0","num_feature":"16","num_nodes":"105","size_leaf_vector":"1"}},{"base_weights":[6.683803E-3,-1.1189664E-1,5.563906E-2,-2.8128792E-2,-3.9407656E-1,7.7784486E-2,4.0925303E-3,-1.415542E-1,-2.8128792E-2,-6.1216545E-1,-2.918375E-1,4.169025E-2,8.756649E-2,-2.8128792E-2,4.0938508E-2,-2.1110268E-1,-8.48415E-2,-2.8128792E-2,-8.48415E-2,-4.7642857E-1,-6.814496E-1,-2.1110268E-1,-4.5151812E-1,6.462837E-2,4.0938508E-2,6.533911E-2,9.234834E-2,-2.8128792E-2,6.404858E-3,1.7307695E-2,4.0938508E-2,-1.4797209E-1,-1.0555134E-2,-8.48415E-2,-1.4797209E-1,-5.6485146E-2,-2.8128792E-2,-8.48415E-2,-2.8242574E-3,-5.789391E-1,-4.5200148E-1,-7.598522E-1,-6.0195595E-1,-3.1581324E-1,-2.1110268E-1,-4.5200148E-1,-3.313104E-1,6.462837E-2,5.2783437E-2,4.0938508E-2,5.2783437E-2,7.884373E-2,6.462837E-2,9.7236E-2,8.209271E-2,-2.8128792E-2,-1.0861967E-2,-1.0861967E-2,6.404858E-3,2.9123101E-2,6.404858E-3,2.9123101E-2,4.0938508E-2,-8.976869E-3,-7.398605E-3,-5.82034E-3,-4.242075E-3,-7.398605E-3,-5.82034E-3,-2.1153484E-3,-2.8242574E-3,-1.4064396E-3,-1.5046294E-3,-3.533166E-3,-4.242075E-3,-2.8946955E-2,-2.5773514E-2,-2.5773514E-2,-2.2600075E-2,-3.6227103E-2,-4.130597E-2,-3.40452E-2,-2.8946955E-2,-1.656552E-2,-1.31728975E-2,-1.0555134E-2,-1.31728975E-2,-2.2600075E-2,-2.0030864E-2,-1.656552E-2,-1.9582797E-2,3.2314186E-3,2.639172E-3,3.2314186E-3,2.639172E-3,2.0469255E-3,2.3430486E-3,2.639172E-3,2.3430486E-3,3.9421865E-3,3.5868026E-3,3.2314186E-3,3.5868026E-3,4.5333747E-3,4.918581E-3,3.9421865E-3,4.483218E-3,-1.4064396E-3,-9.7476895E-4,-5.430984E-4,-9.7476895E-4,-5.430984E-4,-1.1142772E-4,3.2024292E-4,-1.1142772E-4,8.88199E-4,1.4561551E-3,3.2024292E-4,8.88199E-4,1.7515402E-3,1.4561551E-3,1.7515402E-3,2.0469255E-3],"categories":[],"categories_nodes":[],"categories_segments":[],"categories_sizes":[],"default_left":[0,0,0,0,0,0,0,0,0,0,0,0,0,0,0,0,0,0,0,0,0,0,0,0,0,0,0,0,0,0,0,0,0,0,0,0,0,0,0,0,0,0,0,0,0,0,0,0,0,0,0,0,0,0,0,0,0,0,0,0,0,0,0,0,0,0,0,0,0,0,0,0,0,0,0,0,0,0,0,0,0,0,0,0,0,0,0,0,0,0,0,0,0,0,0,0,0,0,0,0,0,0,0,0,0,0,0,0,0,0,0,0,0,0,0,0,0,0,0,0,0,0,0],"id":5,"left_children":[1,3,5,7,9,11,13,15,17,19,21,23,25,27,29,31,33,35,37,39,41,43,45,47,49,51,53,55,57,59,61,63,-1,65,67,69,71,73,-1,75,77,79,81,83,85,87,89,91,93,95,97,99,101,103,105,107,109,111,113,115,117,119,121,-1,-1,-1,-1,-1,-1,-1,-1,-1,-1,-1,-1,-1,-1,-1,-1,-1,-1,-1,-1,-1,-1,-1,-1,-1,-1,-1,-1,-1,-1,-1,-1,-1,-1,-1,-1,-1,-1,-1,-1,-1,-1,-1,-1,-1,-1,-1,-1,-1,-1,-1,-1,-1,-1,-1,-1,-1,-1,-1,-1],"loss_changes":[2.9140082E2,4.1479913E2,4.0556755E1,2.764679E1,8.602234E1,8.77092E0,5.741529E1,2.2748737E1,7.876425E0,1.1270966E1,4.180014E1,5.666507E0,2.0721283E0,8.4802055E-1,2.0158768E-1,6.900177E0,1.9204373E0,1.2872562E0,3.8957672E0,4.7997284E0,4.6158752E0,7.2357254E0,6.450699E0,6.439209E-3,5.8091164E-2,6.922493E-1,7.984314E-1,3.056469E-1,1.04704484E-1,4.531326E-1,7.426071E-2,5.5739164E-1,0E0,4.9383163E-2,3.9154673E-1,5.772171E-1,4.196167E-5,2.2094727E-2,0E0,4.1439056E-1,5.5784607E-1,3.513794E-1,3.3046722E0,3.034729E0,1.387726E-1,2.2341919E-1,2.6885376E0,3.2997131E-3,2.125775E-2,3.118515E-3,4.7902822E-2,7.662773E-3,2.3250341E-1,7.230377E-2,9.857712E-1,1.7566681E-3,4.4975927E-1,9.193532E-3,1.2911096E-2,2.0879984E-2,1.1668175E-2,4.6925142E-2,7.93457E-3,0E0,0E0,0E0,0E0,0E0,0E0,0E0,0E0,0E0,0E0,0E0,0E0,0E0,0E0,0E0,0E0,0E0,0E0,0E0,0E0,0E0,0E0,0E0,0E0,0E0,0E0,0E0,0E0,0E0,0E0,0E0,0E0,0E0,0E0,0E0,0E0,0E0,0E0,0E0,0E0,0E0,0E0,0E0,0E0,0E0,0E0,0E0,0E0,0E0,0E0,0E0,0E0,0E0,0E0,0E0,0E0,0E0,0E0,0E0,0E0],"parents":[2147483647,0,0,1,1,2,2,3,3,4,4,5,5,6,6,7,7,8,8,9,9,10,10,11,11,12,12,13,13,14,14,15,15,16,16,17,17,18,18,19,19,20,20,21,21,22,22,23,23,24,24,25,25,26,26,27,27,28,28,29,29,30,30,31,31,33,33,34,34,35,35,36,36,37,37,39,39,40,40,41,41,42,42,43,43,44,44,45,45,46,46,47,47,48,48,49,49,50,50,51,51,52,52,53,53,54,54,55,55,56,56,57,57,58,58,59,59,60,60,61,61,62,62],"right_children":[2,4,6,8,10,12,14,16,18,20,22,24,26,28,30,32,34,36,38,40,42,44,46,48,50,52,54,56,58,60,62,64,-1,66,68,70,72,74,-1,76,78,80,82,84,86,88,90,92,94,96,98,100,102,104,106,108,110,112,114,116,118,120,122,-1,-1,-1,-1,-1,-1,-1,-1,-1,-1,-1,-1,-1,-1,-1,-1,-1,-1,-1,-1,-1,-1,-1,-1,-1,-1,-1,-1,-1,-1,-1,-1,-1,-1,-1,-1,-1,-1,-1,-1,-1,-1,-1,-1,-1,-1,-1,-1,-1,-1,-1,-1,-1,-1,-1,-1,-1,-1,-1,-1],"split_conditions":[2.7E1,5E0,6.8E0,4.2E1,1.898E1,3.196E1,4.736E1,1.638E1,4.3E0,5.7E0,6.3E0,4.9E0,4.4E1,5.4E1,4.88E1,2.9E0,4.5E0,7.8E0,2.142E1,1.548E1,4.4E1,4.4E1,4.7E1,4.6E1,5.1E1,5.5E0,5.9E0,4.32E1,3.294E1,8.2E0,3.8E1,5.83E0,-6.964028E-2,1E-1,2.212E1,1.5E0,4.2E0,2.3E0,5.5757123E-3,5E1,3.9E1,7.1E0,1.392E1,2.4E1,5.2E1,2.573E1,7.1E0,9.9E0,4.2E0,5.1E1,5.7E0,1E1,4.24E1,3.43E1,4.5E1,5.5E1,7.8E0,5.7E1,8.6E0,4.1E1,3.6E1,8.3E0,4.95E1,-6.964028E-2,-1.2806837E-2,-4.8580557E-2,-9.435128E-4,-6.5492265E-2,-3.8700726E-2,2.9111043E-2,-6.964028E-2,4.2462524E-2,-1.0777468E-2,-5.0370013E-3,-6.880265E-2,-6.964028E-2,-6.4640276E-2,-6.9696754E-2,-6.901746E-2,-6.964028E-2,-6.964028E-2,-6.964028E-2,-6.964028E-2,-6.973555E-2,-6.3378684E-2,-3.5918195E-2,-7.752662E-2,-6.964028E-2,-7.028743E-2,-5.4203372E-2,-6.964028E-2,8.291387E-2,8.796293E-2,8.877822E-2,-2.1271382E-2,-1.7123466E-2,1.4419801E-2,5.046785E-2,2.6378806E-3,7.4783705E-2,-6.778163E-2,3.545354E-3,6.0710397E-2,8.5744366E-2,1.2825112E-1,3.0837838E-2,1.268546E-1,-5.6494962E-2,7.29351E-2,2.1968905E-2,-3.6338713E-2,-4.5982137E-2,5.824625E-2,4.4400696E-2,-4.375583E-2,-2.229101E-2,3.3147525E-2,-3.9706614E-2,3.5942893E-2,3.9434552E-2,-5.29185E-2,1.5834926E-2,7.5933E-2],"split_indices":[9,7,7,0,9,9,9,9,7,7,7,7,0,0,9,7,7,9,9,9,0,0,0,8,0,7,7,9,9,7,0,9,0,1,9,7,7,5,0,0,0,7,9,9,8,9,7,3,7,8,7,3,9,9,9,8,7,0,7,0,8,7,9,0,0,0,0,0,0,0,0,0,0,0,0,0,0,0,0,0,0,0,0,0,0,0,0,0,0,0,0,0,0,0,0,0,0,0,0,0,0,0,0,0,0,0,0,0,0,0,0,0,0,0,0,0,0,0,0,0,0,0,0],"split_type":[0,0,0,0,0,0,0,0,0,0,0,0,0,0,0,0,0,0,0,0,0,0,0,0,0,0,0,0,0,0,0,0,0,0,0,0,0,0,0,0,0,0,0,0,0,0,0,0,0,0,0,0,0,0,0,0,0,0,0,0,0,0,0,0,0,0,0,0,0,0,0,0,0,0,0,0,0,0,0,0,0,0,0,0,0,0,0,0,0,0,0,0,0,0,0,0,0,0,0,0,0,0,0,0,0,0,0,0,0,0,0,0,0,0,0,0,0,0,0,0,0,0,0],"sum_hessian":[5.0195E4,1.4667E4,3.5528E4,1.0802E4,3.865E3,2.4851E4,1.0677E4,2.148E3,8.654E3,1.232E3,2.633E3,5.3E3,1.9551E4,3.872E3,6.805E3,9.29E2,1.219E3,7.213E3,1.441E3,4.19E2,8.13E2,1.613E3,1.02E3,3.108E3,2.192E3,3.464E3,1.6087E4,3.653E3,2.19E2,3.63E2,6.442E3,4.68E2,4.61E2,9.62E2,2.57E2,3.32E2,6.881E3,6.28E2,8.13E2,2.06E2,2.13E2,4.05E2,4.08E2,6.63E2,9.5E2,6.82E2,3.38E2,3.069E3,3.9E1,1.899E3,2.93E2,1.579E3,1.885E3,1.0889E4,5.198E3,2.809E3,8.44E2,2.9E1,1.9E2,2.79E2,8.4E1,1.05E2,6.337E3,4.8E1,4.2E2,5E0,9.57E2,1.26E2,1.31E2,2.17E2,1.15E2,6.666E3,2.15E2,1.1E1,6.17E2,1.73E2,3.3E1,3E1,1.83E2,2.72E2,1.33E2,1.39E2,2.69E2,3.76E2,2.87E2,9.47E2,3E0,5.21E2,1.61E2,1.81E2,1.57E2,3.051E3,1.8E1,2.6E1,1.3E1,1.891E3,8E0,1.78E2,1.15E2,1.575E3,4E0,9.51E2,9.34E2,1.617E3,9.272E3,1.93E3,3.268E3,2.808E3,1E0,5.06E2,3.38E2,2.4E1,5E0,1.67E2,2.3E1,2.7E1,2.52E2,7.8E1,6E0,6E1,4.5E1,1.81E2,6.156E3],"tree_param":{"num_deleted":"0","num_feature":"16","num_nodes":"123","size_leaf_vector":"1"}},{"base_weights":[9.876448E-3,-4.1576594E-1,5.85795E-2,-6.411587E-1,-3.0857223E-1,-6.8504035E-2,8.473567E-2,-7.566006E-1,-5.740494E-1,-4.3692783E-1,-2.3322727E-1,-1.3714485E-1,-2.7922882E-2,4.2221896E-2,9.416353E-2,-4.058468E-2,-7.1643454E-1,-6.613057E-1,-4.7486547E-1,-4.7486547E-1,-3.4562212E-1,-3.013039E-1,-1.7859322E-1,-1.7859322E-1,-8.2533866E-2,-7.2378136E-2,4.4022943E-3,8.115817E-3,6.06708E-2,8.264566E-2,9.8843E-2,-3.8203206E-2,-6.8060344E-1,-2.840428E-2,-6.6532505E-1,-2.3743274E-2,-2.840428E-2,-2.0512192E-2,-2.3743274E-2,-3.3507755E-1,-4.102438E-1,-2.3994856E-1,-3.3507755E-1,-1.7859322E-1,-2.3994856E-1,-1.3056354E-1,-1.7859322E-1,-1.3056354E-1,-8.2533866E-2,-8.2533866E-2,-3.398792E-2,8.115817E-3,-3.398792E-2,3.439331E-2,8.115817E-3,6.819271E-2,4.5672376E-2,7.0104256E-2,9.074433E-2,9.424682E-2,9.9376865E-2,-3.3266254E-2,-3.611669E-2,-3.0835265E-2,-3.3266254E-2,-1.8633036E-2,-1.6753878E-2,-2.0512192E-2,-1.8633036E-2,-1.4375652E-2,-1.1997428E-2,-1.6753878E-2,-1.4375652E-2,-1.0463545E-2,-8.9296615E-3,-1.1997428E-2,-1.0463545E-2,-6.5281773E-3,-7.7289194E-3,-7.966573E-3,-8.9296615E-3,-6.5281773E-3,-5.327435E-3,-4.1266936E-3,-5.327435E-3,-4.1266936E-3,-2.9130448E-3,-1.6993961E-3,-2.9130448E-3,-6.468026E-4,4.0579084E-4,-6.468026E-4,-1.6993961E-3,1.7196656E-3,4.0579084E-4,1.7196656E-3,4.0579084E-4,2.8585272E-3,3.4096357E-3,1.7196656E-3,2.8466273E-3,4.021215E-3,3.4096357E-3,4.206616E-3,4.537217E-3,4.8405924E-3,4.537217E-3,4.8405924E-3,4.9804724E-3],"categories":[],"categories_nodes":[],"categories_segments":[],"categories_sizes":[],"default_left":[0,0,0,0,0,0,0,0,0,0,0,0,0,0,0,0,0,0,0,0,0,0,0,0,0,0,0,0,0,0,0,0,0,0,0,0,0,0,0,0,0,0,0,0,0,0,0,0,0,0,0,0,0,0,0,0,0,0,0,0,0,0,0,0,0,0,0,0,0,0,0,0,0,0,0,0,0,0,0,0,0,0,0,0,0,0,0,0,0,0,0,0,0,0,0,0,0,0,0,0,0,0,0,0,0,0,0,0,0],"id":6,"left_children":[1,3,5,7,9,11,13,15,17,19,21,23,25,27,29,-1,31,33,35,37,39,41,43,45,47,49,51,53,55,57,59,-1,61,-1,63,-1,-1,-1,-1,65,67,69,71,73,75,77,79,81,83,85,87,89,91,93,95,97,99,101,103,105,107,-1,-1,-1,-1,-1,-1,-1,-1,-1,-1,-1,-1,-1,-1,-1,-1,-1,-1,-1,-1,-1,-1,-1,-1,-1,-1,-1,-1,-1,-1,-1,-1,-1,-1,-1,-1,-1,-1,-1,-1,-1,-1,-1,-1,-1,-1,-1,-1],"loss_changes":[1.0385808E3,1.24084656E2,1.4944038E2,1.2402832E1,3.3630432E1,2.1372272E1,1.4939575E1,7.593994E-1,1.1254791E1,8.793442E0,8.414116E0,1.214867E1,6.932521E0,5.055109E0,1.6365051E0,0E0,2.1781921E-1,2.1929321E0,1.3877869E0,3.7345886E-1,1.9987793E0,3.8196335E0,1.6986732E0,1.4277153E0,1.4511967E0,2.999484E0,1.5455691E0,5.473223E-1,7.6766205E-1,9.250603E-1,4.3884277E-2,0E0,3.2707214E-2,0E0,1.7877197E-1,0E0,0E0,0E0,0E0,8.998108E-2,6.7285156E-1,9.966755E-1,8.6483765E-1,3.5175133E-1,7.0405006E-1,8.339882E-4,1.0129547E-1,3.955593E-1,1.2813413E-1,2.2363377E-1,8.3272964E-2,2.1465653E-1,1.219995E-1,2.6388365E-1,1.842415E-1,5.8036804E-2,4.6583414E-1,3.0308342E-1,8.2962036E-2,2.5684357E-2,5.1574707E-3,0E0,0E0,0E0,0E0,0E0,0E0,0E0,0E0,0E0,0E0,0E0,0E0,0E0,0E0,0E0,0E0,0E0,0E0,0E0,0E0,0E0,0E0,0E0,0E0,0E0,0E0,0E0,0E0,0E0,0E0,0E0,0E0,0E0,0E0,0E0,0E0,0E0,0E0,0E0,0E0,0E0,0E0,0E0,0E0,0E0,0E0,0E0,0E0],"parents":[2147483647,0,0,1,1,2,2,3,3,4,4,5,5,6,6,7,7,8,8,9,9,10,10,11,11,12,12,13,13,14,14,16,16,17,17,18,18,19,19,20,20,21,21,22,22,23,23,24,24,25,25,26,26,27,27,28,28,29,29,30,30,32,32,34,34,39,39,40,40,41,41,42,42,43,43,44,44,45,45,46,46,47,47,48,48,49,49,50,50,51,51,52,52,53,53,54,54,55,55,56,56,57,57,58,58,59,59,60,60],"right_children":[2,4,6,8,10,12,14,16,18,20,22,24,26,28,30,-1,32,34,36,38,40,42,44,46,48,50,52,54,56,58,60,-1,62,-1,64,-1,-1,-1,-1,66,68,70,72,74,76,78,80,82,84,86,88,90,92,94,96,98,100,102,104,106,108,-1,-1,-1,-1,-1,-1,-1,-1,-1,-1,-1,-1,-1,-1,-1,-1,-1,-1,-1,-1,-1,-1,-1,-1,-1,-1,-1,-1,-1,-1,-1,-1,-1,-1,-1,-1,-1,-1,-1,-1,-1,-1,-1,-1,-1,-1,-1,-1],"split_conditions":[4.2E0,3E0,5.6E0,2.2E0,4.3E1,4.4E1,6.5E0,1.7E0,4.5E1,3.7E0,3.7E0,4.9E0,4.9E0,4.4E1,7.6E0,-6.6158265E-2,4.2E1,4.2E0,7.6E0,2.9E0,5.5E0,5.8E0,6.8E0,3.1E0,3.9E1,4.9E1,7.6E0,1E0,5.9E0,4.6E1,7.9E0,-6.6158265E-2,5.6E0,-6.731917E-2,1E0,-6.620015E-2,-6.6158265E-2,-5.618764E-2,-6.621192E-2,3.8E1,4E1,4.6E1,5.1E1,4.5E1,5E1,1E0,4.9E0,5.3E0,8.2E0,3.8E1,1E1,5E0,3E0,6.6E0,2.9E0,5.8E0,5E1,3.6E0,4.9E1,5.1E0,4.2E1,-6.6158265E-2,-6.6158265E-2,-5.6658264E-2,-6.6158265E-2,-6.683167E-2,-6.0170013E-2,-6.712653E-2,-6.624877E-2,-6.0393162E-2,-5.136769E-2,-6.658684E-2,-6.807386E-2,-6.030336E-2,-3.704191E-2,-5.901116E-2,-3.5770103E-2,-3.8763117E-3,-3.0083358E-3,-4.429852E-2,-6.291481E-2,-6.475605E-2,-2.7850648E-2,-1.606848E-2,-4.7924194E-2,-3.350247E-2,-1.1886689E-2,-5.3375806E-3,-4.8732232E-2,-1.3458907E-2,1.0595444E-2,6.340027E-3,-2.0640837E-2,2.3864163E-2,-1.6663598E-3,2.729019E-2,-1.0236709E-2,2.4513222E-2,4.639544E-2,1.2153292E-2,4.415112E-2,6.0946237E-2,3.9243136E-2,5.9607696E-2,8.15207E-2,9.956124E-2,7.8112364E-2,9.142488E-2,1.4656913E-1],"split_indices":[6,6,6,6,0,0,6,6,0,6,6,6,6,0,6,0,0,7,7,7,7,7,7,7,0,0,7,13,7,0,6,0,7,0,13,0,0,0,0,0,0,0,0,0,0,15,5,6,5,8,5,6,3,5,7,6,0,7,0,7,0,0,0,0,0,0,0,0,0,0,0,0,0,0,0,0,0,0,0,0,0,0,0,0,0,0,0,0,0,0,0,0,0,0,0,0,0,0,0,0,0,0,0,0,0,0,0,0,0],"split_type":[0,0,0,0,0,0,0,0,0,0,0,0,0,0,0,0,0,0,0,0,0,0,0,0,0,0,0,0,0,0,0,0,0,0,0,0,0,0,0,0,0,0,0,0,0,0,0,0,0,0,0,0,0,0,0,0,0,0,0,0,0,0,0,0,0,0,0,0,0,0,0,0,0,0,0,0,0,0,0,0,0,0,0,0,0,0,0,0,0,0,0,0,0,0,0,0,0,0,0,0,0,0,0,0,0,0,0,0,0],"sum_hessian":[5.0098E4,5.143E3,4.4955E4,1.656E3,3.487E3,7.673E3,3.7282E4,6.05E2,1.051E3,1.288E3,2.199E3,2.85E3,4.823E3,6.768E3,3.0514E4,2.47E2,3.58E2,6.27E2,4.24E2,6.38E2,6.5E2,9.96E2,1.203E3,1.333E3,1.517E3,2.03E3,2.793E3,2.088E3,4.68E3,8.821E3,2.1693E4,1.27E2,2.31E2,1.13E2,5.14E2,3.39E2,8.5E1,2.8E1,6.1E2,2.88E2,3.62E2,4.68E2,5.28E2,8.16E2,3.87E2,1.18E2,1.215E3,3.23E2,1.194E3,1.284E3,7.46E2,2.393E3,4E2,7.04E2,1.384E3,2.636E3,2.044E3,3.548E3,5.273E3,2.276E3,1.9417E4,7.9E1,1.52E2,1.67E2,3.47E2,6.6E1,2.22E2,1.63E2,1.99E2,1.86E2,2.82E2,4.43E2,8.5E1,1.89E2,6.27E2,2.94E2,9.3E1,1.16E2,2E0,3.58E2,8.57E2,1.79E2,1.44E2,1.065E3,1.29E2,1.192E3,9.2E1,7.24E2,2.2E1,3.31E2,2.062E3,6.4E1,3.36E2,4.63E2,2.41E2,1.21E2,1.263E3,5.15E2,2.121E3,1.323E3,7.21E2,5.91E2,2.957E3,2.085E3,3.188E3,9.95E2,1.281E3,1.239E3,1.8178E4],"tree_param":{"num_deleted":"0","num_feature":"16","num_nodes":"109","size_leaf_vector":"1"}},{"base_weights":[1.1195612E-2,-3.9586312E-1,5.8064017E-2,-6.2448853E-1,-2.8755695E-1,-6.309197E-2,8.2983576E-2,-7.59844E-1,-5.635652E-1,-4.1096422E-1,-2.1616523E-1,-1.0272123E-1,-1.400463E-3,4.0780567E-2,9.367348E-2,-7.386417E-1,-4.275862E-2,-6.5646356E-1,-4.5602274E-1,-4.5602274E-1,-3.300462E-1,-2.804054E-1,-1.6889955E-1,-1.6715088E-1,-5.2060846E-2,-4.2976186E-2,9.945802E-3,1.2539188E-2,5.8159985E-2,7.5685866E-2,9.711115E-2,-3.9845355E-2,-7.084175E-1,-2.7812159E-2,-6.617046E-1,-4.5602274E-1,-5.562432E-1,-1.9651724E-2,-4.5602274E-1,-3.9303446E-1,-3.1356472E-1,-3.1356472E-1,-2.2465247E-1,-1.6889955E-1,-2.2465247E-1,-1.13270774E-1,-1.6889955E-1,-1.0960586E-1,-5.2060846E-2,-1.6515192E-2,-5.2060846E-2,9.945802E-3,-1.6515192E-2,3.097975E-2,9.945802E-3,4.5150068E-2,6.722702E-2,6.722702E-2,8.639851E-2,9.122883E-2,9.938309E-2,-3.3448275E-2,-3.7633117E-2,-3.308523E-2,-3.0448694E-2,-2.2801137E-2,-2.5306648E-2,-2.7812159E-2,-2.5306648E-2,-2.2801137E-2,-2.122643E-2,-1.766498E-2,-1.9651724E-2,-1.5678236E-2,-1.766498E-2,-1.3589108E-2,-1.5678236E-2,-1.1232624E-2,-1.345543E-2,-8.444978E-3,-9.8388E-3,-1.1232624E-2,-9.8388E-3,-7.054258E-3,-5.480293E-3,-8.444978E-3,-7.1563087E-3,-4.0416676E-3,-5.480293E-3,-3.614754E-3,-2.6030424E-3,-1.714401E-3,-8.257596E-4,-2.6030424E-3,-1.714401E-3,-1.3157875E-4,4.972901E-4,-8.257596E-4,-1.6423473E-4,1.0231389E-3,1.7674792E-3,1.0231389E-3,4.972901E-4,2.8094274E-3,1.7674792E-3,3.361351E-3,2.868687E-3,3.8406383E-3,3.361351E-3,4.035326E-3,4.319926E-3,4.319926E-3,4.7241068E-3,4.765298E-3,4.9849185E-3],"categories":[],"categories_nodes":[],"categories_segments":[],"categories_sizes":[],"default_left":[0,0,0,0,0,0,0,0,0,0,0,0,0,0,0,0,0,0,0,0,0,0,0,0,0,0,0,0,0,0,0,0,0,0,0,0,0,0,0,0,0,0,0,0,0,0,0,0,0,0,0,0,0,0,0,0,0,0,0,0,0,0,0,0,0,0,0,0,0,0,0,0,0,0,0,0,0,0,0,0,0,0,0,0,0,0,0,0,0,0,0,0,0,0,0,0,0,0,0,0,0,0,0,0,0,0,0,0,0,0,0,0,0,0,0],"id":7,"left_children":[1,3,5,7,9,11,13,15,17,19,21,23,25,27,29,31,-1,33,35,37,39,41,43,45,47,49,51,53,55,57,59,-1,61,-1,63,65,67,-1,69,71,73,75,77,79,81,83,85,87,89,91,93,95,97,99,101,103,105,107,109,111,113,-1,-1,-1,-1,-1,-1,-1,-1,-1,-1,-1,-1,-1,-1,-1,-1,-1,-1,-1,-1,-1,-1,-1,-1,-1,-1,-1,-1,-1,-1,-1,-1,-1,-1,-1,-1,-1,-1,-1,-1,-1,-1,-1,-1,-1,-1,-1,-1,-1,-1,-1,-1,-1,-1],"loss_changes":[9.5584045E2,1.2791205E2,1.3564978E2,1.32771E1,3.0852783E1,1.8739155E1,1.6807709E1,4.0515137E-1,1.353067E1,7.480789E0,7.877411E0,1.6285923E1,1.9664356E0,3.6966076E0,1.8311462E0,2.409668E-1,0E0,2.3153992E0,9.291611E-1,4.9586487E-1,1.7069397E0,3.9369278E0,1.5990105E0,2.2734833E0,1.6256199E0,5.007833E-1,5.342002E-1,7.8890586E-1,7.32646E-1,8.947449E-1,3.2452393E-1,0E0,2.7415466E-1,0E0,2.2860718E-1,2.0126343E-2,6.508064E-2,0E0,1.2565613E-1,5.3845215E-1,2.5806046E-1,2.5432205E-1,7.8972816E-1,1.6344261E-1,5.054703E-1,9.482279E-1,3.242073E-1,4.029355E-1,2.4703932E-1,4.202871E-2,1.2246585E-1,5.4002166E-2,1.1924341E-1,4.0255797E-1,3.918934E-2,5.5050516E-1,4.353714E-2,1.0569763E-1,4.4555664E-3,1.8646622E-1,1.802063E-2,0E0,0E0,0E0,0E0,0E0,0E0,0E0,0E0,0E0,0E0,0E0,0E0,0E0,0E0,0E0,0E0,0E0,0E0,0E0,0E0,0E0,0E0,0E0,0E0,0E0,0E0,0E0,0E0,0E0,0E0,0E0,0E0,0E0,0E0,0E0,0E0,0E0,0E0,0E0,0E0,0E0,0E0,0E0,0E0,0E0,0E0,0E0,0E0,0E0,0E0,0E0,0E0,0E0,0E0],"parents":[2147483647,0,0,1,1,2,2,3,3,4,4,5,5,6,6,7,7,8,8,9,9,10,10,11,11,12,12,13,13,14,14,15,15,17,17,18,18,19,19,20,20,21,21,22,22,23,23,24,24,25,25,26,26,27,27,28,28,29,29,30,30,32,32,34,34,35,35,36,36,38,38,39,39,40,40,41,41,42,42,43,43,44,44,45,45,46,46,47,47,48,48,49,49,50,50,51,51,52,52,53,53,54,54,55,55,56,56,57,57,58,58,59,59,60,60],"right_children":[2,4,6,8,10,12,14,16,18,20,22,24,26,28,30,32,-1,34,36,38,40,42,44,46,48,50,52,54,56,58,60,-1,62,-1,64,66,68,-1,70,72,74,76,78,80,82,84,86,88,90,92,94,96,98,100,102,104,106,108,110,112,114,-1,-1,-1,-1,-1,-1,-1,-1,-1,-1,-1,-1,-1,-1,-1,-1,-1,-1,-1,-1,-1,-1,-1,-1,-1,-1,-1,-1,-1,-1,-1,-1,-1,-1,-1,-1,-1,-1,-1,-1,-1,-1,-1,-1,-1,-1,-1,-1,-1,-1,-1,-1,-1,-1],"split_conditions":[4.2E0,3E0,5.6E0,2.1E0,4.3E1,4.7E1,6.6E0,8E0,4.5E1,3.7E0,3.7E0,4.9E0,4.7E0,4.5E1,7.2E0,1.4E0,-6.285035E-2,4.2E0,8.8E0,2.9E0,3.9E1,4.7E1,6.6E0,5E0,3.9E1,4.2E0,7.4E0,6.1E0,6.1E0,4.7E1,8.1E0,-6.285035E-2,5.7E0,-6.356975E-2,4.3E1,7.6E0,2.585E1,-6.1305065E-2,4.2E1,3.9E0,3E1,5.4E0,8.4E0,8.8E0,5E1,4E1,4.4E1,5.9E0,5.1E0,2.9E1,3.332E1,4.8E1,3E1,4.1E1,1.1E0,5.7E0,7.1E0,3.4E0,4.8E1,4.4E1,4.2E1,-6.285035E-2,-6.285035E-2,-6.285035E-2,-6.285035E-2,-6.285035E-2,-6.2897645E-2,-6.285035E-2,-4.43613E-2,-6.290414E-2,-6.290668E-2,-6.1470605E-2,-6.406504E-2,-5.505493E-2,-6.4133696E-2,-5.359893E-2,-6.325749E-2,-5.260418E-2,-6.409869E-2,-3.7462723E-2,-6.022938E-2,-5.6063633E-2,-5.1733255E-2,-5.989281E-2,-2.9102696E-2,-5.9801996E-2,-4.0033795E-2,-2.34583E-2,-6.1480146E-2,-2.0998364E-2,-8.838461E-3,-7.1014347E-3,2.2008905E-2,-2.0149572E-2,-1.5530926E-2,-5.285821E-3,1.4448376E-2,-1.3690035E-2,7.7817785E-3,1.8582063E-3,2.3163265E-2,1.6204668E-2,-1.06175E-2,3.4944057E-2,1.006502E-2,4.9544964E-2,3.584211E-2,6.265249E-2,3.4413546E-2,5.523069E-2,6.584211E-2,5.342595E-2,8.5709006E-2,9.480412E-2,1.4534596E-1],"split_indices":[6,6,6,6,0,0,6,7,0,6,6,6,6,0,6,6,0,7,7,7,0,0,7,7,0,7,7,7,6,0,6,0,3,0,0,3,9,0,0,7,8,7,7,3,0,0,0,7,6,8,9,0,8,0,3,7,7,7,0,0,0,0,0,0,0,0,0,0,0,0,0,0,0,0,0,0,0,0,0,0,0,0,0,0,0,0,0,0,0,0,0,0,0,0,0,0,0,0,0,0,0,0,0,0,0,0,0,0,0,0,0,0,0,0,0],"split_type":[0,0,0,0,0,0,0,0,0,0,0,0,0,0,0,0,0,0,0,0,0,0,0,0,0,0,0,0,0,0,0,0,0,0,0,0,0,0,0,0,0,0,0,0,0,0,0,0,0,0,0,0,0,0,0,0,0,0,0,0,0,0,0,0,0,0,0,0,0,0,0,0,0,0,0,0,0,0,0,0,0,0,0,0,0,0,0,0,0,0,0,0,0,0,0,0,0,0,0,0,0,0,0,0,0,0,0,0,0,0,0,0,0,0,0],"sum_hessian":[5.0099E4,5.172E3,4.4927E4,1.661E3,3.511E3,7.664E3,3.7263E4,5.12E2,1.149E3,1.285E3,2.226E3,4.666E3,2.998E3,7.532E3,2.9731E4,4.26E2,8.6E1,6.72E2,4.77E2,6.37E2,6.48E2,1.035E3,1.191E3,2.133E3,2.533E3,8.39E2,2.159E3,2.87E3,4.662E3,4.774E3,2.4957E4,1.3E2,2.96E2,1.15E2,5.57E2,4.41E2,3.6E1,2.7E1,6.1E2,2.21E2,4.27E2,5.18E2,5.17E2,7.59E2,4.32E2,7.45E2,1.388E3,3.25E2,2.208E3,1.64E2,6.75E2,1.763E3,3.96E2,1.826E3,1.044E3,2.298E3,2.364E3,2.383E3,2.391E3,6.965E3,1.7992E4,2.02E2,9.4E1,3.82E2,1.75E2,4.01E2,4E1,2.3E1,1.3E1,4.77E2,1.33E2,4.3E1,1.78E2,2.72E2,1.55E2,2.01E2,3.17E2,4.7E2,4.7E1,7.4E2,1.9E1,3.33E2,9.9E1,1.84E2,5.61E2,8.58E2,5.3E2,1.85E2,1.4E2,6.09E2,1.599E3,8.6E1,7.8E1,5.18E2,1.57E2,3.41E2,1.422E3,2.64E2,1.32E2,6.56E2,1.17E3,3.4E1,1.01E3,1.154E3,1.144E3,1.87E3,4.94E2,3.51E2,2.032E3,3.67E2,2.024E3,1.511E3,5.454E3,1.085E3,1.6907E4],"tree_param":{"num_deleted":"0","num_feature":"16","num_nodes":"115","size_leaf_vector":"1"}},{"base_weights":[1.1683579E-2,-3.880915E-1,5.705504E-2,-6.04919E-1,-2.8314963E-1,-6.2491857E-2,8.161852E-2,-7.276948E-1,-5.3483564E-1,-4.1041335E-1,-2.0994979E-1,-1.02747016E-1,8.3724415E-4,3.592419E-2,9.178741E-2,-3.9554656E-2,-6.817927E-1,-6.29764E-1,-4.4403434E-1,-2.2201717E-2,-3.3204332E-1,-2.7783298E-1,-1.6551822E-1,-1.5544435E-1,-5.0954886E-2,-4.431418E-2,9.563331E-3,9.563331E-3,5.2359696E-2,7.7794135E-2,9.746609E-2,-3.6822148E-2,-3.1563263E-2,-5.52E-1,-6.312652E-1,-4.4403434E-1,-5.368992E-1,-3.880388E-1,-3.1018156E-1,-3.1018156E-1,-2.216756E-1,-2.216756E-1,-1.6551822E-1,-1.6551822E-1,-1.2085216E-1,-1.03199616E-1,-5.0954886E-2,-1.7375425E-2,-5.0954886E-2,9.563331E-3,-6.7391265E-3,9.563331E-3,3.0483874E-2,3.732742E-2,6.372806E-2,6.38558E-2,8.479648E-2,9.248222E-2,9.9026896E-2,-3.1563263E-2,-2.6844962E-2,-3.1563263E-2,-2.6844962E-2,-2.2201717E-2,-2.6829267E-2,-2.2201717E-2,-2.6844962E-2,-1.7455509E-2,-1.9401941E-2,-1.5509078E-2,-1.7455509E-2,-1.3296428E-2,-1.5509078E-2,-1.1083781E-2,-1.3296428E-2,-9.6798455E-3,-1.1083781E-2,-8.275911E-3,-9.6798455E-3,-8.275911E-3,-7.15926E-3,-7.15926E-3,-5.159981E-3,-3.8538629E-3,-5.159981E-3,-2.5477444E-3,-3.8538629E-3,-1.7082578E-3,-8.687712E-4,-2.5477444E-3,-1.7082578E-3,4.7816653E-4,7.06051E-5,7.06051E-5,-8.687712E-4,1.5480757E-3,4.7816653E-4,4.7816653E-4,1.5480757E-3,1.5480757E-3,2.5263869E-3,2.7268978E-3,3.1927899E-3,3.7163072E-3,3.1927899E-3,3.8006844E-3,4.3815053E-3,4.389957E-3,4.7877277E-3,4.8781754E-3,4.990241E-3],"categories":[],"categories_nodes":[],"categories_segments":[],"categories_sizes":[],"default_left":[0,0,0,0,0,0,0,0,0,0,0,0,0,0,0,0,0,0,0,0,0,0,0,0,0,0,0,0,0,0,0,0,0,0,0,0,0,0,0,0,0,0,0,0,0,0,0,0,0,0,0,0,0,0,0,0,0,0,0,0,0,0,0,0,0,0,0,0,0,0,0,0,0,0,0,0,0,0,0,0,0,0,0,0,0,0,0,0,0,0,0,0,0,0,0,0,0,0,0,0,0,0,0,0,0,0,0,0,0,0,0],"id":8,"left_children":[1,3,5,7,9,11,13,15,17,19,21,23,25,27,29,-1,31,33,35,-1,37,39,41,43,45,47,49,51,53,55,57,-1,-1,59,61,63,65,67,69,71,73,75,77,79,81,83,85,87,89,91,93,95,97,99,101,103,105,107,109,-1,-1,-1,-1,-1,-1,-1,-1,-1,-1,-1,-1,-1,-1,-1,-1,-1,-1,-1,-1,-1,-1,-1,-1,-1,-1,-1,-1,-1,-1,-1,-1,-1,-1,-1,-1,-1,-1,-1,-1,-1,-1,-1,-1,-1,-1,-1,-1,-1,-1,-1,-1],"loss_changes":[9.10079E2,1.16194214E2,1.3232323E2,1.3954529E1,3.203427E1,1.958143E1,1.7365692E1,1.2154846E0,1.0029144E1,6.4829254E0,8.337524E0,1.4674023E1,2.2486174E0,3.8859692E0,2.422058E0,0E0,8.464203E-1,6.9973755E-1,1.0792389E0,0E0,2.003746E0,3.9994812E0,1.1300774E0,2.8094482E0,9.5490646E-1,6.760967E-1,1.2216282E-1,2.712633E-1,8.0149555E-1,1.1674232E0,1.5997314E-1,0E0,0E0,6.8626404E-2,1.375885E-1,1.5402985E-1,1.972351E-1,4.6852493E-1,1.647129E-1,2.740097E-1,4.9601364E-1,4.6311855E-1,1.2255669E-1,1.6947556E-1,1.7569237E0,3.1672025E-1,2.5258017E-1,9.9862784E-2,6.5711975E-2,2.4749815E-2,1.2190293E-1,1.2502235E-1,2.5582188E-1,5.531397E-1,1.0110855E-1,1.3572884E-1,2.156868E-1,9.6458435E-2,9.109497E-3,0E0,0E0,0E0,0E0,0E0,0E0,0E0,0E0,0E0,0E0,0E0,0E0,0E0,0E0,0E0,0E0,0E0,0E0,0E0,0E0,0E0,0E0,0E0,0E0,0E0,0E0,0E0,0E0,0E0,0E0,0E0,0E0,0E0,0E0,0E0,0E0,0E0,0E0,0E0,0E0,0E0,0E0,0E0,0E0,0E0,0E0,0E0,0E0,0E0,0E0,0E0,0E0],"parents":[2147483647,0,0,1,1,2,2,3,3,4,4,5,5,6,6,7,7,8,8,9,9,10,10,11,11,12,12,13,13,14,14,16,16,17,17,18,18,20,20,21,21,22,22,23,23,24,24,25,25,26,26,27,27,28,28,29,29,30,30,33,33,34,34,35,35,36,36,37,37,38,38,39,39,40,40,41,41,42,42,43,43,44,44,45,45,46,46,47,47,48,48,49,49,50,50,51,51,52,52,53,53,54,54,55,55,56,56,57,57,58,58],"right_children":[2,4,6,8,10,12,14,16,18,20,22,24,26,28,30,-1,32,34,36,-1,38,40,42,44,46,48,50,52,54,56,58,-1,-1,60,62,64,66,68,70,72,74,76,78,80,82,84,86,88,90,92,94,96,98,100,102,104,106,108,110,-1,-1,-1,-1,-1,-1,-1,-1,-1,-1,-1,-1,-1,-1,-1,-1,-1,-1,-1,-1,-1,-1,-1,-1,-1,-1,-1,-1,-1,-1,-1,-1,-1,-1,-1,-1,-1,-1,-1,-1,-1,-1,-1,-1,-1,-1,-1,-1,-1,-1,-1,-1],"split_conditions":[4.2E0,3E0,5.6E0,2.2E0,4.3E1,4.7E1,6.5E0,1.7E0,4.4E1,3.7E0,3.7E0,5E0,4.7E0,4.4E1,7.6E0,-5.970783E-2,4.3E1,1E0,3.4E1,-5.9758093E-2,4E1,4.7E1,4.5E1,4.2E1,3.8E1,6.5E0,7.4E0,1E0,6E0,4.4E1,8.3E0,-5.970783E-2,-5.970783E-2,3.6E1,3.6E1,7.6E0,4.6E0,4.5E0,3.8E1,3.6E0,7.2E0,4.9E0,8.7E0,1E0,4.5E0,2.3E1,8.1E0,2.5E1,5.5E1,1E0,3.3E1,1.3E0,3.8E1,4.9E1,4.8E1,4.1E0,4.7E1,4.8E1,9.2E0,-6.0682833E-2,-5.068283E-2,-5.970783E-2,-5.970783E-2,-5.970783E-2,-5.974927E-2,-5.9747625E-2,-6.004081E-2,-6.089561E-2,-6.0376253E-2,-5.829059E-2,-6.093607E-2,-5.5037003E-2,-6.009462E-2,-5.534723E-2,-5.3564783E-2,-5.1701453E-2,-6.2179953E-2,-3.936372E-2,-5.837955E-2,-6.1800875E-2,-5.2374322E-2,-4.23207E-2,-2.8640274E-2,5.8816243E-3,-5.7100233E-2,-1.0649881E-2,-3.234496E-2,-1.1031904E-2,-9.2176255E-4,-2.8790772E-2,7.0075863E-3,1.1707371E-2,-2.0770425E-2,8.704654E-4,-1.9501256E-2,1.7778557E-2,-9.176837E-3,-1.5312301E-2,1.9525446E-2,1.0827563E-2,4.1549377E-2,2.873144E-2,5.1625986E-2,4.9275514E-2,2.9853527E-2,4.589988E-2,6.69608E-2,6.440829E-2,9.9291794E-2,1.0807866E-1,1.8307866E-1],"split_indices":[6,6,6,6,0,0,6,6,0,6,6,6,6,0,6,0,0,13,8,0,0,0,0,0,0,5,5,12,6,0,6,0,0,0,8,3,5,5,8,3,3,3,3,12,6,8,5,8,0,14,8,3,0,0,0,5,0,0,6,0,0,0,0,0,0,0,0,0,0,0,0,0,0,0,0,0,0,0,0,0,0,0,0,0,0,0,0,0,0,0,0,0,0,0,0,0,0,0,0,0,0,0,0,0,0,0,0,0,0,0,0],"split_type":[0,0,0,0,0,0,0,0,0,0,0,0,0,0,0,0,0,0,0,0,0,0,0,0,0,0,0,0,0,0,0,0,0,0,0,0,0,0,0,0,0,0,0,0,0,0,0,0,0,0,0,0,0,0,0,0,0,0,0,0,0,0,0,0,0,0,0,0,0,0,0,0,0,0,0,0,0,0,0,0,0,0,0,0,0,0,0,0,0,0,0,0,0,0,0,0,0,0,0,0,0,0,0,0,0,0,0,0,0,0,0],"sum_hessian":[5.0172E4,5.113E3,4.5059E4,1.666E3,3.447E3,7.68E3,3.7379E4,6.02E2,1.064E3,1.257E3,2.19E3,4.695E3,2.985E3,6.805E3,3.0574E4,2.46E2,3.56E2,5.5E2,5.14E2,6.12E2,6.45E2,1.005E3,1.185E3,2.497E3,2.198E3,8.52E2,2.133E3,2.102E3,4.703E3,8.83E3,2.1744E4,1.57E2,1.99E2,1.74E2,3.76E2,4.13E2,1.01E2,3.01E2,3.44E2,4.89E2,5.16E2,2.81E2,9.04E2,9.49E2,1.548E3,1.85E2,2.013E3,5.19E2,3.33E2,1.674E3,4.59E2,1.483E3,6.19E2,2.027E3,2.676E3,2.247E3,6.583E3,5.2E3,1.6544E4,1.8E1,1.56E2,3.23E2,5.3E1,3.73E2,4E1,2.9E1,7.2E1,6.1E1,2.4E2,3.13E2,3.1E1,1.26E2,3.63E2,4.59E2,5.7E1,1.59E2,1.22E2,8.82E2,2.2E1,6.61E2,2.88E2,5.32E2,1.016E3,4.3E1,1.42E2,1.781E3,2.32E2,1.51E2,3.68E2,3.05E2,2.8E1,1.616E3,5.8E1,3.67E2,9.2E1,6.2E1,1.421E3,8.8E1,5.31E2,1.195E3,8.32E2,1.211E3,1.465E3,3.8E2,1.867E3,2.046E3,4.537E3,2.548E3,2.652E3,5.786E3,1.0758E4],"tree_param":{"num_deleted":"0","num_feature":"16","num_nodes":"111","size_leaf_vector":"1"}},{"base_weights":[1.3284165E-2,-3.718859E-1,5.738692E-2,-5.9774935E-1,-2.6602107E-1,-4.513881E-2,8.36692E-2,-7.3208827E-1,-5.2225375E-1,-3.332339E-1,-2.0452069E-1,-9.977528E-2,-2.8951901E-3,5.3866785E-2,9.4148494E-2,-4.0020835E-2,-6.8314284E-1,-5.6075126E-1,-4.318852E-1,-3.5722694E-1,-1.3443865E-2,-1.5724948E-1,-2.3426396E-1,-1.13418795E-1,-5.1335234E-2,8.066936E-3,-4.0152796E-2,3.2372434E-2,6.414526E-2,8.159091E-2,9.694928E-2,-3.2819998E-2,-3.7088986E-2,-5.745554E-1,-2.1594262E-2,-5.6226414E-1,-4.318852E-1,-3.368421E-1,-4.0581656E-1,-1.5724948E-1,-2.5083333E-1,-2.4557884E-1,-1.5724948E-1,-8.237702E-2,-1.4104515E-1,-5.1335234E-2,-8.237702E-2,-1.604293E-2,1.9265195E-2,-5.1335234E-2,-1.604293E-2,2.4316834E-2,4.825885E-2,5.782462E-2,7.400764E-2,8.634299E-2,7.400764E-2,9.256562E-2,9.9159196E-2,-2.6833331E-2,-3.0211443E-2,-3.0100001E-2,-2.4853734E-2,-2.1594262E-2,-2.4853734E-2,-1.5652606E-2,-1.7741008E-2,-1.9096857E-2,-2.1594262E-2,-1.0202071E-2,-7.862474E-3,-1.3443865E-2,-1.0202071E-2,-1.0070709E-2,-1.3443865E-2,-7.862474E-3,-1.0070709E-2,-5.5855545E-3,-4.118851E-3,-5.5855545E-3,-7.862474E-3,-2.5667618E-3,-3.3428061E-3,-4.118851E-3,-3.3428061E-3,-8.0214645E-4,8.055666E-5,9.632598E-4,8.35075E-5,-2.5667618E-3,-1.6844542E-3,-8.0214645E-4,-1.6844542E-3,9.632598E-4,1.814392E-3,2.4129425E-3,1.814392E-3,3.221589E-3,2.4129425E-3,3.7003818E-3,3.2958065E-3,4.1290685E-3,4.463505E-3,3.7003818E-3,4.008766E-3,4.5510866E-3,4.79312E-3,4.864937E-3,4.9901437E-3],"categories":[],"categories_nodes":[],"categories_segments":[],"categories_sizes":[],"default_left":[0,0,0,0,0,0,0,0,0,0,0,0,0,0,0,0,0,0,0,0,0,0,0,0,0,0,0,0,0,0,0,0,0,0,0,0,0,0,0,0,0,0,0,0,0,0,0,0,0,0,0,0,0,0,0,0,0,0,0,0,0,0,0,0,0,0,0,0,0,0,0,0,0,0,0,0,0,0,0,0,0,0,0,0,0,0,0,0,0,0,0,0,0,0,0,0,0,0,0,0,0,0,0,0,0,0,0,0,0],"id":9,"left_children":[1,3,5,7,9,11,13,15,17,19,21,23,25,27,29,-1,31,33,35,37,-1,39,41,43,45,47,49,51,53,55,57,-1,-1,59,-1,61,63,65,67,69,71,73,75,77,79,81,83,85,87,89,91,93,95,97,99,101,103,105,107,-1,-1,-1,-1,-1,-1,-1,-1,-1,-1,-1,-1,-1,-1,-1,-1,-1,-1,-1,-1,-1,-1,-1,-1,-1,-1,-1,-1,-1,-1,-1,-1,-1,-1,-1,-1,-1,-1,-1,-1,-1,-1,-1,-1,-1,-1,-1,-1,-1,-1],"loss_changes":[8.5217725E2,1.2307831E2,1.2129353E2,1.6291138E1,1.4444962E1,2.1199072E1,1.1184341E1,1.4230347E0,4.009857E0,4.920944E0,2.8833313E0,4.1287193E0,2.1163616E0,2.0576458E0,9.2437744E-1,0E0,6.878662E-2,1.8726044E0,7.1440506E-1,1.3777466E0,0E0,1.0262241E0,1.5234299E0,3.395092E0,6.551552E-2,1.4710803E0,7.496278E-1,6.833739E-1,6.9820976E-1,2.521057E-1,2.006836E-1,0E0,0E0,4.9757385E-1,0E0,7.815361E-2,1.12636566E-1,5.015259E-1,4.6272278E-1,8.153534E-2,4.3448496E-1,1.3541718E0,1.479299E-1,3.921299E-1,2.1236E0,6.109357E-3,1.1791512E-2,4.0396258E-1,1.4792037E-1,1.1445999E-1,8.722823E-2,2.1023643E-1,4.0550232E-2,3.177414E-1,2.267456E-2,8.2826614E-2,3.851509E-2,3.4641266E-2,7.5531006E-3,0E0,0E0,0E0,0E0,0E0,0E0,0E0,0E0,0E0,0E0,0E0,0E0,0E0,0E0,0E0,0E0,0E0,0E0,0E0,0E0,0E0,0E0,0E0,0E0,0E0,0E0,0E0,0E0,0E0,0E0,0E0,0E0,0E0,0E0,0E0,0E0,0E0,0E0,0E0,0E0,0E0,0E0,0E0,0E0,0E0,0E0,0E0,0E0,0E0,0E0],"parents":[2147483647,0,0,1,1,2,2,3,3,4,4,5,5,6,6,7,7,8,8,9,9,10,10,11,11,12,12,13,13,14,14,16,16,17,17,18,18,19,19,21,21,22,22,23,23,24,24,25,25,26,26,27,27,28,28,29,29,30,30,33,33,35,35,36,36,37,37,38,38,39,39,40,40,41,41,42,42,43,43,44,44,45,45,46,46,47,47,48,48,49,49,50,50,51,51,52,52,53,53,54,54,55,55,56,56,57,57,58,58],"right_children":[2,4,6,8,10,12,14,16,18,20,22,24,26,28,30,-1,32,34,36,38,-1,40,42,44,46,48,50,52,54,56,58,-1,-1,60,-1,62,64,66,68,70,72,74,76,78,80,82,84,86,88,90,92,94,96,98,100,102,104,106,108,-1,-1,-1,-1,-1,-1,-1,-1,-1,-1,-1,-1,-1,-1,-1,-1,-1,-1,-1,-1,-1,-1,-1,-1,-1,-1,-1,-1,-1,-1,-1,-1,-1,-1,-1,-1,-1,-1,-1,-1,-1,-1,-1,-1,-1,-1,-1,-1,-1,-1],"split_conditions":[4.2E0,3E0,5.8E0,2.2E0,3.7E0,5E0,7E0,1.7E0,1E0,1E0,1E0,1E0,7.3E0,6.2E0,7.6E0,-5.672244E-2,5.9E0,1E0,2.4E0,5.8E0,-4.1437265E-2,7.7E0,2E0,5.7E0,1E1,5.3E0,5.5E0,1E0,1E0,7E0,8.6E0,-5.672244E-2,-5.672244E-2,5.9E0,-5.6722023E-2,1.0181818E-1,8.3E0,1E0,7.8E0,1.6E0,3.8E0,4.1E0,7.3E0,4.3E0,1E0,1E0,3.9E0,1E0,6.6E0,5E0,7.6E0,1E0,8.6E0,6.3E0,1E1,1E0,1E0,1E0,9.2E0,-5.672244E-2,-5.6763913E-2,-4.8148695E-2,2.5895013E-2,-4.8148695E-2,-4.8148695E-2,-4.799804E-2,-5.721875E-2,-5.6771036E-2,-5.787928E-2,-1.9896155E-2,-4.6670374E-2,-5.9918523E-2,-4.792695E-2,-5.7084758E-2,-5.7889264E-2,-1.3330678E-2,-6.827132E-2,-5.1657934E-2,-2.6117263E-2,-3.2110795E-2,-4.573049E-2,1.2846611E-3,-2.6499277E-2,-7.5962685E-2,4.6490896E-2,-1.2024712E-2,3.0056655E-2,1.0856825E-2,1.4392666E-4,-2.4257978E-2,3.382131E-2,-2.0209611E-3,-2.8341759E-2,7.110763E-3,1.9021552E-2,6.026516E-2,-3.7098282E-3,3.7655186E-2,2.1470034E-2,6.2517315E-2,-3.480723E-3,5.9327748E-2,9.2822485E-2,4.401001E-2,7.359325E-2,7.0128635E-2,1.098639E-1,1.1295944E-1,1.7310752E-1],"split_indices":[6,6,6,6,6,6,6,6,12,10,13,10,5,6,6,0,3,10,6,3,0,5,10,5,5,6,6,10,10,5,6,0,0,5,0,11,5,13,5,4,6,3,5,6,13,14,1,10,5,10,3,12,5,5,3,10,10,10,6,0,0,0,0,0,0,0,0,0,0,0,0,0,0,0,0,0,0,0,0,0,0,0,0,0,0,0,0,0,0,0,0,0,0,0,0,0,0,0,0,0,0,0,0,0,0,0,0,0,0],"split_type":[0,0,0,0,0,0,0,0,0,0,0,0,0,0,0,0,0,0,0,0,0,0,0,0,0,0,0,0,0,0,0,0,0,0,0,0,0,0,0,0,0,0,0,0,0,0,0,0,0,0,0,0,0,0,0,0,0,0,0,0,0,0,0,0,0,0,0,0,0,0,0,0,0,0,0,0,0,0,0,0,0,0,0,0,0,0,0,0,0,0,0,0,0,0,0,0,0,0,0,0,0,0,0,0,0,0,0,0,0],"sum_hessian":[5.0164E4,5.153E3,4.5011E4,1.643E3,3.51E3,9.184E3,3.5827E4,5.88E2,1.055E3,1.675E3,1.835E3,4.004E3,5.18E3,9.322E3,2.6505E4,2.39E2,3.49E2,7.71E2,2.84E2,1.528E3,1.47E2,6.54E2,1.181E3,3.509E3,4.95E2,4.003E3,1.177E3,3.017E3,6.305E3,4.839E3,2.1666E4,2.49E2,1E2,7.3E2,4.1E1,5.2E1,2.32E2,1.082E3,4.46E2,5.35E2,1.19E2,1.096E3,8.5E1,1.539E3,1.97E3,4.84E2,1.1E1,1.332E3,2.671E3,6.78E2,4.99E2,2.524E3,4.93E2,5.028E3,1.277E3,3.521E3,1.318E3,7.276E3,1.439E4,3.29E2,4.01E2,4.9E1,3E0,2.05E2,2.7E1,3.88E2,6.94E2,3.81E2,6.5E1,6E0,5.29E2,2.1E1,9.8E1,4.14E2,6.82E2,6.4E1,2.1E1,1.68E2,1.371E3,7E2,1.27E3,4.61E2,2.3E1,8E0,3E0,1.16E3,1.72E2,2.193E3,4.78E2,6.48E2,3E1,4.71E2,2.8E1,1.761E3,7.63E2,4.54E2,3.9E1,2.982E3,2.046E3,1.266E3,1.1E1,2.703E3,8.18E2,1.028E3,2.9E2,5.245E3,2.031E3,3.738E3,1.0652E4],"tree_param":{"num_deleted":"0","num_feature":"16","num_nodes":"109","size_leaf_vector":"1"}},{"base_weights":[1.5012396E-2,-3.5035816E-1,5.7071857E-2,-5.6510353E-1,-2.5019863E-1,-4.3689854E-2,8.249693E-2,-7.042589E-1,-4.872159E-1,-3.547254E-1,-1.6651352E-1,-8.4620245E-2,1.4179489E-3,5.1090814E-2,9.351154E-2,-3.879518E-2,-6.4955753E-1,-5.931034E-1,-4.0765107E-1,-4.0765107E-1,-2.85804E-1,-1.4664315E-1,-2.6061946E-1,-1.4664315E-1,-4.3188903E-2,-4.1601148E-2,1.5672553E-2,1.940354E-2,5.9857145E-2,8.41845E-2,9.8542735E-2,-3.5636526E-2,-2.978687E-2,-2.5018862E-2,-5.957374E-1,-2.0382553E-2,-5.0037724E-1,-4.0765107E-1,-3.4672755E-1,-2.6061946E-1,-3.4672755E-1,-2.0363131E-1,-1.4664315E-1,-2.0363131E-1,-2.6061946E-1,-9.491602E-2,-1.4664315E-1,-4.1601148E-2,-9.491602E-2,-1.2964297E-2,-4.1601148E-2,1.940354E-2,-1.2964297E-2,1.940354E-2,3.9630342E-2,5.043222E-2,7.230118E-2,7.230118E-2,8.787504E-2,9.136362E-2,9.896489E-2,-2.978687E-2,-2.7402867E-2,-2.5018862E-2,-2.2700708E-2,-1.7336378E-2,-2.0382553E-2,-2.0382553E-2,-1.7336378E-2,-1.4772727E-2,-1.3030973E-2,-1.7336378E-2,-1.5183675E-2,-1.0181566E-2,-8.756861E-3,-7.3321573E-3,-8.756861E-3,-1.0181566E-2,-1.16062695E-2,-1.3030973E-2,-1.16062695E-2,-4.7458014E-3,-6.0389796E-3,-6.0389796E-3,-7.3321573E-3,-3.4129291E-3,-2.0800575E-3,-4.7458014E-3,-3.4129291E-3,-6.482149E-4,-1.3641361E-3,-2.0800575E-3,-1.3641361E-3,9.70177E-4,1.6098107E-4,-6.482149E-4,1.6098107E-4,1.4758471E-3,9.70177E-4,1.981517E-3,1.4758471E-3,3.0683351E-3,1.981517E-3,3.0683351E-3,3.615059E-3,4.0044053E-3,3.615059E-3,4.568181E-3,4.111217E-3,4.7582127E-3,4.568181E-3,4.8381924E-3,4.98005E-3],"categories":[],"categories_nodes":[],"categories_segments":[],"categories_sizes":[],"default_left":[0,0,0,0,0,0,0,0,0,0,0,0,0,0,0,0,0,0,0,0,0,0,0,0,0,0,0,0,0,0,0,0,0,0,0,0,0,0,0,0,0,0,0,0,0,0,0,0,0,0,0,0,0,0,0,0,0,0,0,0,0,0,0,0,0,0,0,0,0,0,0,0,0,0,0,0,0,0,0,0,0,0,0,0,0,0,0,0,0,0,0,0,0,0,0,0,0,0,0,0,0,0,0,0,0,0,0,0,0,0,0,0,0],"id":10,"left_children":[1,3,5,7,9,11,13,15,17,19,21,23,25,27,29,-1,31,33,35,37,39,41,43,45,47,49,51,53,55,57,59,-1,-1,-1,61,-1,63,65,67,69,71,73,75,77,79,81,83,85,87,89,91,93,95,97,99,101,103,105,107,109,111,-1,-1,-1,-1,-1,-1,-1,-1,-1,-1,-1,-1,-1,-1,-1,-1,-1,-1,-1,-1,-1,-1,-1,-1,-1,-1,-1,-1,-1,-1,-1,-1,-1,-1,-1,-1,-1,-1,-1,-1,-1,-1,-1,-1,-1,-1,-1,-1,-1,-1,-1,-1],"loss_changes":[7.688762E2,1.109516E2,1.1494972E2,1.7453613E1,3.0766556E1,1.6692333E1,1.2389114E1,1.7965088E0,1.4093826E1,7.265213E0,5.945919E0,1.2621998E1,2.8157942E0,3.2576332E0,1.2363586E0,0E0,1.4469147E0,2.7279358E0,2.5359344E-1,8.8822937E-1,3.0575256E0,1.6896362E0,1.3422127E0,1.9203491E0,2.3692183E0,4.6442294E-1,1.0461354E0,4.03647E-1,1.0707436E0,4.436798E-1,5.8425903E-2,0E0,0E0,0E0,1.335907E-1,0E0,2.3635674E-1,5.967331E-1,5.324421E-1,1.2166977E-2,6.3602066E-1,6.833477E-1,1.5264893E-1,1.1746359E-1,1.3365555E-1,1.3607025E-2,7.350235E-1,5.5251694E-1,2.2538996E-1,6.778957E-2,1.1830711E-1,2.5386035E-1,4.339698E-2,2.1683931E-2,5.3374052E-2,7.5307465E-1,1.2104607E-1,1.5519524E-1,1.668396E-1,9.0174675E-3,1.34887695E-2,0E0,0E0,0E0,0E0,0E0,0E0,0E0,0E0,0E0,0E0,0E0,0E0,0E0,0E0,0E0,0E0,0E0,0E0,0E0,0E0,0E0,0E0,0E0,0E0,0E0,0E0,0E0,0E0,0E0,0E0,0E0,0E0,0E0,0E0,0E0,0E0,0E0,0E0,0E0,0E0,0E0,0E0,0E0,0E0,0E0,0E0,0E0,0E0,0E0,0E0,0E0,0E0],"parents":[2147483647,0,0,1,1,2,2,3,3,4,4,5,5,6,6,7,7,8,8,9,9,10,10,11,11,12,12,13,13,14,14,16,16,17,17,18,18,19,19,20,20,21,21,22,22,23,23,24,24,25,25,26,26,27,27,28,28,29,29,30,30,34,34,36,36,37,37,38,38,39,39,40,40,41,41,42,42,43,43,44,44,45,45,46,46,47,47,48,48,49,49,50,50,51,51,52,52,53,53,54,54,55,55,56,56,57,57,58,58,59,59,60,60],"right_children":[2,4,6,8,10,12,14,16,18,20,22,24,26,28,30,-1,32,34,36,38,40,42,44,46,48,50,52,54,56,58,60,-1,-1,-1,62,-1,64,66,68,70,72,74,76,78,80,82,84,86,88,90,92,94,96,98,100,102,104,106,108,110,112,-1,-1,-1,-1,-1,-1,-1,-1,-1,-1,-1,-1,-1,-1,-1,-1,-1,-1,-1,-1,-1,-1,-1,-1,-1,-1,-1,-1,-1,-1,-1,-1,-1,-1,-1,-1,-1,-1,-1,-1,-1,-1,-1,-1,-1,-1,-1,-1,-1,-1,-1,-1],"split_conditions":[4.2E0,3E0,5.8E0,2.2E0,4.4E1,4.6E1,7E0,4.3E1,4.5E1,3.7E0,7.2E0,4.9E0,4.7E0,4.2E1,8.2E0,-5.388632E-2,1.8E0,4.2E0,8.8E0,1E0,5.5E0,3.5E0,5.4E0,3.2E0,7E0,4.7E0,8.3E0,6.6E0,4.9E1,4.4E1,4.1E1,-5.388632E-2,-5.388632E-2,-5.5752523E-2,4.3E1,-5.3886324E-2,2.585E1,2.9E0,3.3E0,3.8E1,4.2E1,4.7E1,9.7E0,9.4E0,3.9E0,9.3E0,5E0,3.7E1,4.4E1,7.9E0,5.1E1,8.7E0,5.2E1,2.2E0,8.1E0,5.6E0,6.1E0,5.1E0,5.7E0,4.9E0,8.8E0,-5.388632E-2,-5.388632E-2,-5.388632E-2,-4.1073065E-2,-4.4874493E-2,-5.4308403E-2,-4.4761978E-2,-4.4806167E-2,-5.423628E-2,-5.0621312E-2,-5.4978907E-2,-5.4950625E-2,-4.92927E-2,-4.7498386E-2,-3.4625307E-2,-5.6679886E-2,-4.565615E-2,-5.6413528E-2,-5.4549962E-2,-5.126214E-2,-7.6025883E-3,-5.844586E-2,-3.4348182E-2,-5.150325E-2,-3.7177514E-2,-8.78575E-3,-3.3336155E-2,-2.0885507E-2,6.342096E-3,-3.0808285E-2,-2.3384E-2,-8.987613E-3,1.351921E-2,-7.5845094E-3,-2.6586404E-2,8.50999E-3,1.9949533E-2,-4.3731867E-3,2.1799551E-2,-1.8848397E-2,3.4046773E-2,1.5679866E-2,4.7111977E-2,5.323219E-2,5.5170517E-2,3.7284583E-2,8.111226E-2,6.2017996E-2,9.460611E-2,6.53862E-2,9.115032E-2,1.5423815E-1],"split_indices":[6,6,6,6,0,0,6,0,0,6,7,6,6,0,6,0,6,7,7,12,7,6,5,7,7,7,7,6,0,0,0,0,0,0,0,0,9,7,6,0,0,0,5,7,6,5,5,0,0,5,0,5,0,5,5,7,6,7,7,7,6,0,0,0,0,0,0,0,0,0,0,0,0,0,0,0,0,0,0,0,0,0,0,0,0,0,0,0,0,0,0,0,0,0,0,0,0,0,0,0,0,0,0,0,0,0,0,0,0,0,0,0,0],"split_type":[0,0,0,0,0,0,0,0,0,0,0,0,0,0,0,0,0,0,0,0,0,0,0,0,0,0,0,0,0,0,0,0,0,0,0,0,0,0,0,0,0,0,0,0,0,0,0,0,0,0,0,0,0,0,0,0,0,0,0,0,0,0,0,0,0,0,0,0,0,0,0,0,0,0,0,0,0,0,0,0,0,0,0,0,0,0,0,0,0,0,0,0,0,0,0,0,0,0,0,0,0,0,0,0,0,0,0,0,0,0,0,0,0],"sum_hessian":[5.0031E4,5.164E3,4.4867E4,1.641E3,3.523E3,9.04E3,3.5827E4,5.86E2,1.055E3,1.565E3,1.958E3,4.739E3,4.301E3,9.304E3,2.6523E4,2.48E2,3.38E2,6.08E2,4.47E2,7.7E2,7.95E2,1.483E3,4.75E2,1.855E3,2.884E3,1.016E3,3.285E3,1.605E3,7.699E3,9.3E3,1.7223E4,1.65E2,1.73E2,1.09E2,4.99E2,4.14E2,3.3E1,5.41E2,2.29E2,3.55E2,4.4E2,4.5E2,1.033E3,1.6E2,3.15E2,1.66E2,1.689E3,2.28E3,6.04E2,2.68E2,7.48E2,3.015E3,2.7E2,1.094E3,5.11E2,4.742E3,2.957E3,2.035E3,7.265E3,7.04E2,1.6519E4,3.3E2,1.69E2,2.3E1,1E1,2.7E1,5.14E2,7.6E1,1.53E2,6.5E1,2.9E2,2.79E2,1.61E2,1.89E2,2.61E2,1.007E3,2.6E1,1.38E2,2.2E1,2.16E2,9.9E1,1.59E2,7E0,5.07E2,1.182E3,1.52E2,2.128E3,3.93E2,2.11E2,2.13E2,5.5E1,5.46E2,2.02E2,2.799E3,2.16E2,2E2,7E1,2.8E1,1.066E3,4.45E2,6.6E1,2.528E3,2.214E3,6.42E2,2.315E3,9.82E2,1.053E3,4.11E3,3.155E3,3.53E2,3.51E2,3.738E3,1.2781E4],"tree_param":{"num_deleted":"0","num_feature":"16","num_nodes":"113","size_leaf_vector":"1"}},{"base_weights":[1.4682924E-2,-3.6149484E-1,5.432801E-2,-5.7143736E-1,-2.5239158E-1,-3.2069597E-2,8.519175E-2,-6.537578E-1,-4.530551E-1,-4.1191447E-1,-2.0201313E-1,-9.042336E-2,2.3930517E-3,5.950551E-2,9.305327E-2,-7.4025E-1,-5.9069765E-1,-5.534065E-1,-4.1191447E-1,-4.1191447E-1,-3.2436708E-1,-2.6565376E-1,-1.535834E-1,-1.535834E-1,-4.6170916E-2,-2.9117642E-2,2.4202673E-2,2.786787E-2,6.807229E-2,8.27479E-2,9.751969E-2,-7.574229E-1,-3.3273693E-2,-2.7670324E-2,-6.5933734E-1,-2.4133025E-2,-2.7670324E-2,-2.0595724E-2,-4.669811E-1,-1.8407037E-2,-2.0595724E-2,-3.069638E-1,-3.6814076E-1,-3.069638E-1,-2.0961858E-1,-2.0961858E-1,-1.535834E-1,-1.032061E-1,-1.535834E-1,-4.4015154E-2,-9.391752E-2,-2.4574846E-3,-4.4015154E-2,2.6561076E-2,-2.4574846E-3,4.797008E-2,2.6561076E-2,5.9212733E-2,7.627939E-2,9.013379E-2,7.627939E-2,9.377273E-2,4.986137E-3,-3.5820898E-2,-4.0254775E-2,-3.3273693E-2,-3.0318594E-2,-2.4133025E-2,-2.197239E-2,-1.534819E-2,-1.6877614E-2,-1.8407037E-2,-1.6877614E-2,-1.291456E-2,-1.534819E-2,-1.0480929E-2,-1.291456E-2,-9.08005E-3,-1.0480929E-2,-7.6791705E-3,-9.08005E-3,-6.419738E-3,-4.9938583E-3,-6.419738E-3,-7.6791705E-3,-2.2007579E-3,-3.4483168E-3,-4.9938583E-3,-3.4483168E-3,-1.161816E-3,-1.2287423E-4,-2.2007579E-3,-1.1749787E-3,6.025898E-4,1.3280538E-3,6.025898E-4,-1.2287423E-4,1.8632788E-3,2.398504E-3,1.8632788E-3,1.3280538E-3,3.3873029E-3,2.398504E-3,3.4402334E-3,3.8139694E-3,4.1603297E-3,4.50669E-3,3.8139694E-3,4.1603297E-3,4.50669E-3,4.825418E-3],"categories":[],"categories_nodes":[],"categories_segments":[],"categories_sizes":[],"default_left":[0,0,0,0,0,0,0,0,0,0,0,0,0,0,0,0,0,0,0,0,0,0,0,0,0,0,0,0,0,0,0,0,0,0,0,0,0,0,0,0,0,0,0,0,0,0,0,0,0,0,0,0,0,0,0,0,0,0,0,0,0,0,0,0,0,0,0,0,0,0,0,0,0,0,0,0,0,0,0,0,0,0,0,0,0,0,0,0,0,0,0,0,0,0,0,0,0,0,0,0,0,0,0,0,0,0,0,0,0,0,0],"id":11,"left_children":[1,3,5,7,9,11,13,15,17,19,21,23,25,27,29,31,33,35,37,39,41,43,45,47,49,51,53,55,57,59,61,63,-1,-1,65,-1,-1,-1,67,-1,-1,69,71,73,75,77,79,81,83,85,87,89,91,93,95,97,99,101,103,105,107,109,-1,-1,-1,-1,-1,-1,-1,-1,-1,-1,-1,-1,-1,-1,-1,-1,-1,-1,-1,-1,-1,-1,-1,-1,-1,-1,-1,-1,-1,-1,-1,-1,-1,-1,-1,-1,-1,-1,-1,-1,-1,-1,-1,-1,-1,-1,-1,-1,-1],"loss_changes":[7.4504346E2,1.08954285E2,1.2051492E2,1.5569153E1,2.726535E1,2.3923367E1,6.7186584E0,4.7878723E0,8.648499E0,2.252327E0,7.9075317E0,1.35418625E1,5.141232E0,2.1137848E0,1.165329E0,3.3883667E-1,2.6418457E0,1.217041E-1,1.5174866E-1,1.4031982E-1,1.3124008E0,4.334114E0,1.4262028E0,1.6387215E0,2.4010391E0,2.089109E0,7.7921796E-1,4.6582472E-1,6.238079E-1,4.4643402E-1,1.3743591E-1,1.2107849E-1,0E0,0E0,5.5514526E-1,0E0,0E0,0E0,1.6901779E-1,0E0,0E0,1.782465E-2,1.4230728E-2,7.481079E-1,9.338007E-1,4.4919395E-1,4.4617462E-1,5.3131914E-1,1.9203949E-1,2.2854602E-1,1.6379824E0,2.2334138E-1,4.9597406E-1,3.2252312E-1,1.6267924E-1,1.4281654E-1,4.0794015E-2,5.768204E-1,5.167389E-2,3.5036087E-2,1.8390656E-1,9.183884E-2,0E0,0E0,0E0,0E0,0E0,0E0,0E0,0E0,0E0,0E0,0E0,0E0,0E0,0E0,0E0,0E0,0E0,0E0,0E0,0E0,0E0,0E0,0E0,0E0,0E0,0E0,0E0,0E0,0E0,0E0,0E0,0E0,0E0,0E0,0E0,0E0,0E0,0E0,0E0,0E0,0E0,0E0,0E0,0E0,0E0,0E0,0E0,0E0,0E0],"parents":[2147483647,0,0,1,1,2,2,3,3,4,4,5,5,6,6,7,7,8,8,9,9,10,10,11,11,12,12,13,13,14,14,15,15,16,16,17,17,18,18,19,19,20,20,21,21,22,22,23,23,24,24,25,25,26,26,27,27,28,28,29,29,30,30,31,31,34,34,38,38,41,41,42,42,43,43,44,44,45,45,46,46,47,47,48,48,49,49,50,50,51,51,52,52,53,53,54,54,55,55,56,56,57,57,58,58,59,59,60,60,61,61],"right_children":[2,4,6,8,10,12,14,16,18,20,22,24,26,28,30,32,34,36,38,40,42,44,46,48,50,52,54,56,58,60,62,64,-1,-1,66,-1,-1,-1,68,-1,-1,70,72,74,76,78,80,82,84,86,88,90,92,94,96,98,100,102,104,106,108,110,-1,-1,-1,-1,-1,-1,-1,-1,-1,-1,-1,-1,-1,-1,-1,-1,-1,-1,-1,-1,-1,-1,-1,-1,-1,-1,-1,-1,-1,-1,-1,-1,-1,-1,-1,-1,-1,-1,-1,-1,-1,-1,-1,-1,-1,-1,-1,-1,-1],"split_conditions":[4.1E0,3E0,6.1E0,4.5E1,4.1E1,5E0,7.1E0,2.3E0,2.2E0,3.7E0,3.6E0,4.4E1,4.5E1,4.3E1,8.1E0,3.7E1,5.7E0,3.9E0,7.5E0,3.5E0,5.6E0,4.7E1,4.4E1,5E0,6.5E0,5.1E0,7.9E0,5.2E0,4.9E1,5.1E0,9.1E0,2.8E1,-5.1192004E-2,-5.1217068E-2,4.3E1,-5.3368706E-2,-5.1192004E-2,-5.1229812E-2,2.7E0,-5.157079E-2,-5.1194675E-2,3E1,1E0,5.6E0,7.5E0,4.7E0,8.2E0,3.8E1,4.5E0,8.5E0,4.9E1,5.3E0,5.4E0,5.3E0,5.5E0,6.6E0,3.1E0,5.4E0,5.1E1,4.3E1,4.9E1,4.6E1,1.5407301E-1,-5.1192004E-2,-5.1192004E-2,-5.1192004E-2,-5.1192004E-2,-5.1192004E-2,-5.1185496E-2,-4.660843E-2,-5.2854754E-2,-5.2233387E-2,-4.2739388E-2,-4.8469152E-2,-5.128329E-2,-4.7969725E-2,-5.2180406E-2,-3.8328078E-2,-5.2053202E-2,-3.693293E-2,-5.3877737E-2,-5.370192E-2,-2.770609E-2,-3.7708398E-2,-5.0965387E-2,-4.8120967E-3,-3.1469874E-2,-4.13416E-2,-3.9545796E-3,-1.2469827E-2,6.5871947E-3,-3.5075873E-2,-1.0082776E-2,5.0137746E-3,1.8356666E-2,7.5068534E-3,-1.7369067E-2,1.51775805E-2,2.8111804E-2,2.0584194E-2,9.3602296E-4,3.9751578E-2,2.3685372E-2,3.9461166E-2,5.9130307E-2,5.187427E-2,8.00638E-2,4.4637483E-2,7.619553E-2,6.277609E-2,9.904017E-2],"split_indices":[6,6,6,0,0,6,6,6,6,6,6,0,0,0,6,8,7,7,7,7,7,0,0,7,7,7,7,7,0,7,6,8,0,0,0,0,0,0,6,0,0,8,12,7,7,7,5,0,5,5,0,6,6,6,5,6,5,7,0,0,0,0,0,0,0,0,0,0,0,0,0,0,0,0,0,0,0,0,0,0,0,0,0,0,0,0,0,0,0,0,0,0,0,0,0,0,0,0,0,0,0,0,0,0,0,0,0,0,0,0,0],"split_type":[0,0,0,0,0,0,0,0,0,0,0,0,0,0,0,0,0,0,0,0,0,0,0,0,0,0,0,0,0,0,0,0,0,0,0,0,0,0,0,0,0,0,0,0,0,0,0,0,0,0,0,0,0,0,0,0,0,0,0,0,0,0,0,0,0,0,0,0,0,0,0,0,0,0,0,0,0,0,0,0,0,0,0,0,0,0,0,0,0,0,0,0,0,0,0,0,0,0,0,0,0,0,0,0,0,0,0,0,0,0,0],"sum_hessian":[4.9955E4,4.762E3,4.5193E4,1.627E3,3.135E3,1.1895E4,3.3298E4,9.57E2,6.7E2,7.02E2,2.433E3,4.416E3,7.479E3,7.805E3,2.5493E4,3.99E2,5.58E2,2.34E2,4.36E2,3.87E2,3.15E2,1.085E3,1.348E3,1.714E3,2.702E3,3.059E3,4.42E3,1.664E3,6.141E3,7.714E3,1.7779E4,3.56E2,4.3E1,2.27E2,3.31E2,1.7E1,2.17E2,3.31E2,1.05E2,3.5E1,3.52E2,1.45E2,1.7E2,6.44E2,4.41E2,3.76E2,9.72E2,6.54E2,1.06E3,1.733E3,9.69E2,1.244E3,1.815E3,3.918E3,5.02E2,7.97E2,8.67E2,3.581E3,2.56E3,3.457E3,4.257E3,6.599E3,1.118E4,2E2,1.56E2,2.36E2,9.5E1,5.6E1,4.9E1,9.8E1,4.7E1,1.19E2,5.1E1,2.78E2,3.66E2,3.52E2,8.9E1,9E1,2.86E2,8.47E2,1.25E2,1.18E2,5.36E2,2.62E2,7.98E2,1.552E3,1.81E2,6.05E2,3.64E2,2.89E2,9.55E2,6.33E2,1.182E3,8.66E2,3.052E3,2.27E2,2.75E2,3.88E2,4.09E2,7.3E1,7.94E2,1.712E3,1.869E3,1.028E3,1.532E3,5.98E2,2.859E3,2.491E3,1.766E3,1.989E3,4.61E3],"tree_param":{"num_deleted":"0","num_feature":"16","num_nodes":"111","size_leaf_vector":"1"}},{"base_weights":[1.6328854E-2,-3.3272478E-1,5.628752E-2,-5.509014E-1,-2.2848536E-1,-3.9385654E-2,8.071224E-2,-6.758064E-1,-4.636826E-1,-3.5118297E-1,-1.5826948E-1,-8.5812174E-2,-4.261851E-3,5.1751863E-2,9.203712E-2,-5.6974447E-1,-7.126894E-1,-5.6974447E-1,-3.8969338E-1,-3.8969338E-1,-2.668721E-1,-1.3821863E-1,-2.0977508E-1,-1.3821863E-1,-4.5037013E-2,9.202304E-3,-4.5037013E-2,2.0663291E-2,6.220102E-2,8.1753656E-2,9.770482E-2,-3.2060847E-2,-2.8487224E-2,-4.0954545E-2,-6.8305486E-1,-2.8487224E-2,-4.9784172E-1,-4.7971892E-1,-3.8969338E-1,-1.6414138E-2,-3.8969338E-1,-2.5472623E-1,-3.2828274E-1,-1.7399685E-1,-1.3821863E-1,-2.5472623E-1,-1.7399685E-1,-9.162782E-2,-1.3821863E-1,-8.0915175E-2,-4.5037013E-2,-1.7917354E-2,1.9519234E-2,-4.5037013E-2,-1.7917354E-2,2.0663291E-2,4.1432157E-2,4.9297016E-2,7.189449E-2,7.445687E-2,8.956542E-2,9.8940134E-2,9.408159E-2,-3.6005154E-2,-3.2411505E-2,-2.3985947E-2,-2.6689654E-2,-2.1735309E-2,-2.3985947E-2,-1.9484669E-2,-2.1735309E-2,-1.9484669E-2,-1.7949402E-2,-1.2736312E-2,-1.4575225E-2,-1.6414138E-2,-1.4575225E-2,-7.805387E-3,-8.699843E-3,-6.9109313E-3,-7.805387E-3,-1.0718077E-2,-1.2736312E-2,-1.0718077E-2,-8.699843E-3,-4.5813913E-3,-5.746161E-3,-6.9109313E-3,-5.746161E-3,-3.1488047E-3,-4.5813913E-3,-2.2518507E-3,-3.1488047E-3,-8.958677E-4,4.0047013E-5,2.6964067E-4,1.0331646E-3,-2.2518507E-3,-1.5738591E-3,-8.958677E-4,-1.5738591E-3,1.0331646E-3,1.5523862E-3,2.0716079E-3,1.5523862E-3,2.083649E-3,3.0297877E-3,3.5947245E-3,3.0297877E-3,4.1005574E-3,3.5947245E-3,4.4864616E-3,4.1005574E-3,4.842615E-3,4.9783527E-3,4.4864616E-3,4.825543E-3],"categories":[],"categories_nodes":[],"categories_segments":[],"categories_sizes":[],"default_left":[0,0,0,0,0,0,0,0,0,0,0,0,0,0,0,0,0,0,0,0,0,0,0,0,0,0,0,0,0,0,0,0,0,0,0,0,0,0,0,0,0,0,0,0,0,0,0,0,0,0,0,0,0,0,0,0,0,0,0,0,0,0,0,0,0,0,0,0,0,0,0,0,0,0,0,0,0,0,0,0,0,0,0,0,0,0,0,0,0,0,0,0,0,0,0,0,0,0,0,0,0,0,0,0,0,0,0,0,0,0,0,0,0,0,0,0,0],"id":12,"left_children":[1,3,5,7,9,11,13,15,17,19,21,23,25,27,29,31,33,35,37,39,41,43,45,47,49,51,53,55,57,59,61,-1,-1,-1,63,-1,65,67,69,-1,71,73,75,77,79,81,83,85,87,89,91,93,95,97,99,101,103,105,107,109,111,113,115,-1,-1,-1,-1,-1,-1,-1,-1,-1,-1,-1,-1,-1,-1,-1,-1,-1,-1,-1,-1,-1,-1,-1,-1,-1,-1,-1,-1,-1,-1,-1,-1,-1,-1,-1,-1,-1,-1,-1,-1,-1,-1,-1,-1,-1,-1,-1,-1,-1,-1,-1,-1,-1,-1],"loss_changes":[6.9916205E2,1.1697583E2,1.0510727E2,1.7814392E1,2.9977448E1,1.491706E1,1.1746841E1,2.7922058E0,1.2809509E1,7.757843E0,5.007866E0,1.0801708E1,3.102088E0,3.8236027E0,1.4932556E0,3.9950562E-1,1.1054077E0,3.9404297E-1,1.6309357E0,4.2167664E-1,1.8903313E0,6.083069E-1,4.022503E0,1.424324E0,1.1513405E0,1.4311852E0,6.2278104E-1,4.5475167E-1,9.9962425E-1,5.153427E-1,6.4971924E-2,0E0,0E0,0E0,7.380676E-2,0E0,2.5019836E-1,1.6262436E-1,4.5970917E-2,0E0,1.118927E-1,1.0289097E-1,6.4513016E-1,1.6655731E-1,2.9716492E-3,4.8243713E-1,7.505932E-1,1.6705155E-1,6.3163376E-1,9.0874434E-1,1.00718975E-1,3.6167657E-1,3.457371E-1,5.1502466E-2,1.662254E-1,4.4917107E-2,1.3242173E-1,5.065174E-1,2.1505737E-1,2.618618E-1,8.575821E-2,6.55365E-3,9.568405E-2,0E0,0E0,0E0,0E0,0E0,0E0,0E0,0E0,0E0,0E0,0E0,0E0,0E0,0E0,0E0,0E0,0E0,0E0,0E0,0E0,0E0,0E0,0E0,0E0,0E0,0E0,0E0,0E0,0E0,0E0,0E0,0E0,0E0,0E0,0E0,0E0,0E0,0E0,0E0,0E0,0E0,0E0,0E0,0E0,0E0,0E0,0E0,0E0,0E0,0E0,0E0,0E0,0E0,0E0],"parents":[2147483647,0,0,1,1,2,2,3,3,4,4,5,5,6,6,7,7,8,8,9,9,10,10,11,11,12,12,13,13,14,14,15,15,16,16,17,17,18,18,19,19,20,20,21,21,22,22,23,23,24,24,25,25,26,26,27,27,28,28,29,29,30,30,34,34,36,36,37,37,38,38,40,40,41,41,42,42,43,43,44,44,45,45,46,46,47,47,48,48,49,49,50,50,51,51,52,52,53,53,54,54,55,55,56,56,57,57,58,58,59,59,60,60,61,61,62,62],"right_children":[2,4,6,8,10,12,14,16,18,20,22,24,26,28,30,32,34,36,38,40,42,44,46,48,50,52,54,56,58,60,62,-1,-1,-1,64,-1,66,68,70,-1,72,74,76,78,80,82,84,86,88,90,92,94,96,98,100,102,104,106,108,110,112,114,116,-1,-1,-1,-1,-1,-1,-1,-1,-1,-1,-1,-1,-1,-1,-1,-1,-1,-1,-1,-1,-1,-1,-1,-1,-1,-1,-1,-1,-1,-1,-1,-1,-1,-1,-1,-1,-1,-1,-1,-1,-1,-1,-1,-1,-1,-1,-1,-1,-1,-1,-1,-1,-1,-1],"split_conditions":[4.2E0,3E0,5.8E0,4.3E1,4.3E1,5E0,7.1E0,4.5E0,2.2E0,3.7E0,5.9E0,4.5E1,7E0,4.3E1,8.3E0,2.2E0,1.8E0,1.9E0,4.5E1,2.9E0,5.5E0,4.5E1,3.6E0,3.6E0,4.8E1,4.2E1,4.6E1,6.6E0,6.4E0,4.8E1,6.3E0,-4.8632406E-2,-4.867096E-2,-4.8632406E-2,4E1,-4.8632406E-2,6.2E0,5.7E0,9E0,-5.1723786E-2,4.2E1,3E1,4.1E1,4.3E0,1E0,4.3E0,4.6E1,3.4E1,4.3E1,5.8E0,9.5E0,5.3E0,4.7E1,5.376E1,8.7E0,4.2E1,6.1E0,5.1E1,3.8E1,3.9E0,7.4E0,8.9E0,4.7E1,-4.8632406E-2,-4.8632406E-2,-4.8632406E-2,-4.8632406E-2,-4.8673034E-2,-4.8632406E-2,-4.8626408E-2,-4.863274E-2,-4.8634943E-2,-4.854122E-2,-4.2425714E-2,-5.0518215E-2,-4.9588185E-2,-4.9643904E-2,-2.7319117E-2,-4.9053207E-2,-2.6990846E-2,-6.395212E-2,-4.9134325E-2,-4.9460296E-2,-4.991234E-2,-3.9297227E-2,-1.3131415E-2,-2.2638699E-2,-4.8166953E-2,-3.2937896E-2,-1.1173001E-2,-3.3290047E-2,2.0931459E-4,-4.444089E-2,-3.6172446E-2,4.2835088E-3,1.1898841E-3,1.7284365E-2,-2.8449077E-2,7.233012E-3,6.4900075E-4,-2.2099365E-2,-5.265409E-3,1.1408566E-2,2.3371203E-2,8.474811E-3,2.2101875E-2,4.875692E-2,4.307876E-2,2.8583923E-2,6.954404E-2,4.3196924E-2,7.8544684E-2,6.2278964E-2,8.834198E-2,1.464247E-1,6.934914E-2,1.17517225E-1],"split_indices":[6,6,6,0,0,6,6,7,6,6,7,0,7,0,6,6,6,6,0,7,7,0,6,7,0,0,0,6,6,0,7,0,0,0,0,0,3,7,7,0,0,8,0,3,15,3,0,8,0,7,7,6,0,9,7,0,7,0,8,7,7,6,0,0,0,0,0,0,0,0,0,0,0,0,0,0,0,0,0,0,0,0,0,0,0,0,0,0,0,0,0,0,0,0,0,0,0,0,0,0,0,0,0,0,0,0,0,0,0,0,0,0,0,0,0,0,0],"split_type":[0,0,0,0,0,0,0,0,0,0,0,0,0,0,0,0,0,0,0,0,0,0,0,0,0,0,0,0,0,0,0,0,0,0,0,0,0,0,0,0,0,0,0,0,0,0,0,0,0,0,0,0,0,0,0,0,0,0,0,0,0,0,0,0,0,0,0,0,0,0,0,0,0,0,0,0,0,0,0,0,0,0,0,0,0,0,0,0,0,0,0,0,0,0,0,0,0,0,0,0,0,0,0,0,0,0,0,0,0,0,0,0,0,0,0,0,0],"sum_hessian":[5.0125E4,5.148E3,4.4977E4,1.663E3,3.485E3,9.147E3,3.583E4,6.81E2,9.82E2,1.267E3,2.218E3,3.939E3,5.208E3,1.0074E4,2.5756E4,1.54E2,5.27E2,3.46E2,6.36E2,6.19E2,6.48E2,1.063E3,1.155E3,1.841E3,2.098E3,3.998E3,1.21E3,2.215E3,7.859E3,9.157E3,1.6599E4,6E1,9.4E1,1.09E2,4.18E2,2.08E2,1.38E2,1.92E2,4.44E2,2.9E1,5.9E2,2.91E2,3.57E2,2.58E2,8.05E2,4.47E2,7.08E2,2.53E2,1.588E3,8.95E2,1.203E3,8.79E2,3.119E3,5.75E2,6.35E2,1.403E3,8.12E2,3.413E3,4.446E3,4.74E3,4.417E3,1.2359E4,4.24E3,1.93E2,2.25E2,1.04E2,3.4E1,7.7E1,1.15E2,4.12E2,3.2E1,4.7E2,1.2E2,1.96E2,9.5E1,2.23E2,1.34E2,1.22E2,1.36E2,8E2,5E0,1.75E2,2.72E2,2.52E2,4.56E2,2.13E2,4E1,1.037E3,5.51E2,4.44E2,4.51E2,1.17E3,3.3E1,3.11E2,5.68E2,1.501E3,1.618E3,5.61E2,1.4E1,5E2,1.35E2,1.063E3,3.4E2,5.52E2,2.6E2,2.641E3,7.72E2,4.081E3,3.65E2,1.12E3,3.62E3,3.78E3,6.37E2,2.89E3,9.469E3,1.091E3,3.149E3],"tree_param":{"num_deleted":"0","num_feature":"16","num_nodes":"117","size_leaf_vector":"1"}},{"base_weights":[1.7612092E-2,-9.013794E-2,5.045443E-2,-1.9841757E-2,-4.314074E-1,-1.870895E-2,6.392599E-2,-1.9841757E-2,-1.5853965E-1,-6.002389E-1,-3.1219512E-1,2.2608519E-2,-1.9841757E-2,8.0411166E-2,3.4551296E-2,-8.919071E-2,-1.9841757E-2,-2.2562458E-1,-8.919071E-2,-7.205797E-1,-5.148073E-1,-4.362292E-1,-2.2562458E-1,1.383381E-3,2.2608519E-2,-1.9841757E-2,1.383381E-3,6.606479E-2,9.191396E-2,2.2608519E-2,5.748123E-2,-5.4516234E-2,-8.919071E-2,-5.4516234E-2,-1.9841757E-2,-2.2562458E-1,-1.5740764E-1,-1.5740764E-1,-8.919071E-2,-7.7489537E-1,-6.176935E-1,-6.176935E-1,-4.5621702E-1,-3.309269E-1,-4.5621702E-1,-2.2562458E-1,-3.309269E-1,1.199595E-2,1.383381E-3,1.199595E-2,2.2608519E-2,-1.9841757E-2,-1.3584902E-2,1.383381E-3,-9.229188E-3,7.898937E-2,5.748123E-2,8.3381616E-2,9.616803E-2,2.2608519E-2,4.0044874E-2,4.138889E-2,5.748123E-2,-2.7258117E-3,-3.5926737E-3,-4.4595352E-3,-3.5926737E-3,-1.8589497E-3,-2.7258117E-3,-9.920879E-4,-1.8589497E-3,-9.575806E-3,-1.1281229E-2,-9.575806E-3,-7.870383E-3,-7.870383E-3,-6.1649587E-3,-6.1649587E-3,-4.4595352E-3,-3.6982756E-2,-4.280303E-2,-3.0884674E-2,-3.4814723E-2,-3.0884674E-2,-2.6847763E-2,-2.2810852E-2,-2.6847763E-2,-1.9678598E-2,-1.6546344E-2,-2.2810852E-2,-1.9678598E-2,-1.1281229E-2,-1.3913787E-2,-1.6546344E-2,-1.3913787E-2,3.3448328E-4,5.997975E-4,6.916905E-5,3.3448328E-4,8.651117E-4,5.997975E-4,8.651117E-4,1.130426E-3,-9.920879E-4,-8.3566643E-4,-4.614594E-4,-8.3566643E-4,6.916905E-5,-1.9614518E-4,-4.614594E-4,-1.9614518E-4,3.9494685E-3,3.4958334E-3,3.411765E-3,2.8740615E-3,3.9494685E-3,4.488741E-3,4.9457215E-3,4.5840526E-3,1.130426E-3,1.5102773E-3,1.5663349E-3,2.0022437E-3,2.4717532E-3,2.0022437E-3,2.8740615E-3,2.4717532E-3],"categories":[],"categories_nodes":[],"categories_segments":[],"categories_sizes":[],"default_left":[0,0,0,0,0,0,0,0,0,0,0,0,0,0,0,0,0,0,0,0,0,0,0,0,0,0,0,0,0,0,0,0,0,0,0,0,0,0,0,0,0,0,0,0,0,0,0,0,0,0,0,0,0,0,0,0,0,0,0,0,0,0,0,0,0,0,0,0,0,0,0,0,0,0,0,0,0,0,0,0,0,0,0,0,0,0,0,0,0,0,0,0,0,0,0,0,0,0,0,0,0,0,0,0,0,0,0,0,0,0,0,0,0,0,0,0,0,0,0,0,0,0,0,0,0,0,0],"id":13,"left_children":[1,3,5,7,9,11,13,15,17,19,21,23,25,27,29,31,33,35,37,39,41,43,45,47,49,51,53,55,57,59,61,63,65,67,69,71,73,75,77,79,81,83,85,87,89,91,93,95,97,99,101,103,105,107,109,111,113,115,117,119,121,123,125,-1,-1,-1,-1,-1,-1,-1,-1,-1,-1,-1,-1,-1,-1,-1,-1,-1,-1,-1,-1,-1,-1,-1,-1,-1,-1,-1,-1,-1,-1,-1,-1,-1,-1,-1,-1,-1,-1,-1,-1,-1,-1,-1,-1,-1,-1,-1,-1,-1,-1,-1,-1,-1,-1,-1,-1,-1,-1,-1,-1,-1,-1,-1,-1],"loss_changes":[1.7680113E2,2.853339E2,3.5677467E1,4.5841625E1,4.0569397E1,9.681791E0,1.5516388E1,2.8000908E0,2.946822E1,8.234161E0,1.5033859E1,1.1080008E0,1.8348408E0,3.3813477E0,1.7829597E1,1.628552E0,1.0914145E0,7.123108E-1,1.6363325E0,1.8726959E0,5.4727173E0,4.3586273E0,3.5875435E0,2.5982887E-1,3.3094883E-2,9.979248E-3,5.27659E-2,3.9734917E0,4.0538788E-1,1.257801E-1,8.992767E-2,1.2536526E-2,1.0967255E-3,2.3199809E-1,4.0873146E-1,1.1260986E-2,3.2182717E-1,3.9590693E-1,2.1164584E-1,5.041504E-2,3.2041168E-1,3.9794922E-2,1.3255539E0,7.92017E-1,2.2953796E-1,1.561346E-1,1.3801193E-1,1.2580246E-2,5.209014E-3,7.435452E-2,1.8678188E-2,1.6050339E-3,1.4619114E-1,1.1537157E-2,4.6886943E-2,9.2536926E-2,2.0230293E-2,2.841606E-1,8.452606E-2,6.4071655E-2,3.450671E-2,9.8849475E-2,3.637314E-2,0E0,0E0,0E0,0E0,0E0,0E0,0E0,0E0,0E0,0E0,0E0,0E0,0E0,0E0,0E0,0E0,0E0,0E0,0E0,0E0,0E0,0E0,0E0,0E0,0E0,0E0,0E0,0E0,0E0,0E0,0E0,0E0,0E0,0E0,0E0,0E0,0E0,0E0,0E0,0E0,0E0,0E0,0E0,0E0,0E0,0E0,0E0,0E0,0E0,0E0,0E0,0E0,0E0,0E0,0E0,0E0,0E0,0E0,0E0,0E0,0E0,0E0,0E0,0E0],"parents":[2147483647,0,0,1,1,2,2,3,3,4,4,5,5,6,6,7,7,8,8,9,9,10,10,11,11,12,12,13,13,14,14,15,15,16,16,17,17,18,18,19,19,20,20,21,21,22,22,23,23,24,24,25,25,26,26,27,27,28,28,29,29,30,30,31,31,32,32,33,33,34,34,35,35,36,36,37,37,38,38,39,39,40,40,41,41,42,42,43,43,44,44,45,45,46,46,47,47,48,48,49,49,50,50,51,51,52,52,53,53,54,54,55,55,56,56,57,57,58,58,59,59,60,60,61,61,62,62],"right_children":[2,4,6,8,10,12,14,16,18,20,22,24,26,28,30,32,34,36,38,40,42,44,46,48,50,52,54,56,58,60,62,64,66,68,70,72,74,76,78,80,82,84,86,88,90,92,94,96,98,100,102,104,106,108,110,112,114,116,118,120,122,124,126,-1,-1,-1,-1,-1,-1,-1,-1,-1,-1,-1,-1,-1,-1,-1,-1,-1,-1,-1,-1,-1,-1,-1,-1,-1,-1,-1,-1,-1,-1,-1,-1,-1,-1,-1,-1,-1,-1,-1,-1,-1,-1,-1,-1,-1,-1,-1,-1,-1,-1,-1,-1,-1,-1,-1,-1,-1,-1,-1,-1,-1,-1,-1,-1],"split_conditions":[2.448E1,5.5E0,4.3E1,4.2E0,1.848E1,6.1E0,6.4E0,6.97E0,1.716E1,4.3E1,4.4E1,2.772E1,5.166E1,3.6E1,4.674E1,1.7E0,3.7E1,5E1,4E1,1.638E1,1.311E1,6.5E0,7.2E0,4.1E0,3.7E1,4.788E1,8.9E0,4.8E0,4.8E1,5.6E1,4.4E1,1E0,5.4E1,3.1E0,3.7E0,2.4E0,8.5E0,2.24E1,1.771E1,5.8E0,6.5E0,1E0,7.7E0,3.9E1,2.34E1,7.7E0,5.3E1,2.485E1,4E1,5.4E0,2.915E1,7.4E0,7.5E0,9.7E0,6E1,4.4E0,1.1E0,4.554E1,5.6E0,4.2E1,3.1E1,6.6E0,1E1,9.281616E-3,-2.7685405E-3,-4.6200786E-2,8.908051E-3,1.5641924E-2,-4.6089254E-2,3.52804E-2,-1.8446583E-2,-3.8697913E-2,-4.623441E-2,-4.624267E-2,-3.738645E-2,-4.626218E-2,-1.5669292E-2,-3.5258606E-2,-1.3985135E-2,-4.6200786E-2,-4.6200786E-2,-4.6137E-2,-4.6200786E-2,-4.6200786E-2,8.799217E-3,-4.6200786E-2,-4.6200786E-2,-4.6343107E-2,-4.6125922E-2,-4.6200786E-2,-4.6200786E-2,-4.172456E-2,-4.4099804E-2,-4.6200786E-2,-3.4350816E-2,-2.535193E-2,4.7942273E-2,-3.338502E-2,-5.698496E-3,2.3718571E-2,-2.9531648E-2,7.893177E-3,3.480984E-2,-4.2215403E-2,-3.8592096E-2,2.7302861E-2,-2.9577715E-2,3.332568E-2,-5.5193383E-2,-2.7597204E-2,2.2708595E-2,8.631458E-2,4.2510416E-2,3.2572303E-2,1.1802334E-2,5.1475275E-2,7.8882135E-2,1.2017407E-1,8.187359E-2,-2.3631535E-2,1.4230773E-2,-2.1016032E-2,3.9955344E-2,3.3312168E-2,-2.791399E-3,6.0572244E-2,1.2063624E-2],"split_indices":[9,7,0,7,9,7,7,9,9,0,0,9,9,9,9,7,0,0,0,9,9,7,7,7,0,9,7,7,0,0,0,15,0,7,7,5,9,9,9,3,7,15,7,0,9,3,0,9,8,7,9,1,7,5,9,7,3,9,7,9,9,5,7,0,0,0,0,0,0,0,0,0,0,0,0,0,0,0,0,0,0,0,0,0,0,0,0,0,0,0,0,0,0,0,0,0,0,0,0,0,0,0,0,0,0,0,0,0,0,0,0,0,0,0,0,0,0,0,0,0,0,0,0,0,0,0,0],"split_type":[0,0,0,0,0,0,0,0,0,0,0,0,0,0,0,0,0,0,0,0,0,0,0,0,0,0,0,0,0,0,0,0,0,0,0,0,0,0,0,0,0,0,0,0,0,0,0,0,0,0,0,0,0,0,0,0,0,0,0,0,0,0,0,0,0,0,0,0,0,0,0,0,0,0,0,0,0,0,0,0,0,0,0,0,0,0,0,0,0,0,0,0,0,0,0,0,0,0,0,0,0,0,0,0,0,0,0,0,0,0,0,0,0,0,0,0,0,0,0,0,0,0,0,0,0,0,0],"sum_hessian":[4.9959E4,1.167E4,3.8289E4,9.646E3,2.024E3,6.242E3,3.2047E4,7.264E3,2.382E3,8.36E2,1.188E3,3.226E3,3.016E3,2.0526E4,1.1521E4,3.22E2,6.942E3,7.18E2,1.664E3,3.44E2,4.92E2,5.4E2,6.48E2,6.92E2,2.534E3,2.19E3,8.26E2,9.137E3,1.1389E4,4.128E3,7.393E3,2.3E2,9.2E1,2.13E2,6.729E3,6.24E2,9.4E1,2.5E2,1.414E3,2.38E2,1.06E2,1.47E2,3.45E2,2.81E2,2.59E2,5.12E2,1.36E2,2.17E2,4.75E2,2.35E2,2.299E3,1.926E3,2.64E2,6.96E2,1.3E2,5.609E3,3.528E3,3.796E3,7.593E3,4.002E3,1.26E2,3.59E2,7.034E3,2.27E2,3E0,9.1E1,1E0,1.01E2,1.12E2,5.576E3,1.153E3,1.2E1,6.12E2,1E1,8.4E1,1.75E2,7.5E1,7.6E1,1.338E3,1.73E2,6.5E1,5.2E1,5.4E1,1.44E2,3E0,2.88E2,5.7E1,8.1E1,2E2,1.96E2,6.3E1,4.7E2,4.2E1,1.26E2,1E1,3.1E1,1.86E2,4.49E2,2.6E1,1.41E2,9.4E1,2.65E2,2.034E3,1.915E3,1.1E1,1.5E2,1.14E2,6.87E2,9E0,5.1E1,7.9E1,4.41E3,1.199E3,8.5E1,3.443E3,2.327E3,1.469E3,4.697E3,2.896E3,2.884E3,1.118E3,1.5E1,1.11E2,2.43E2,1.16E2,6.828E3,2.06E2],"tree_param":{"num_deleted":"0","num_feature":"16","num_nodes":"127","size_leaf_vector":"1"}},{"base_weights":[1.7439619E-2,-3.142388E-1,5.5552352E-2,-5.2761734E-1,-2.1325746E-1,-2.1857489E-2,8.1853606E-2,-6.559016E-1,-4.528015E-1,-3.3840185E-1,-1.4072743E-1,-7.237005E-2,5.5780695E-3,5.99345E-2,9.387032E-2,-7.547244E-1,-5.8375347E-1,-5.5435157E-1,-3.7043738E-1,-3.7043738E-1,-2.4750778E-1,-2.0621951E-1,-1.2934321E-1,-1.1957783E-1,-3.339599E-2,-3.339599E-2,1.6748939E-2,4.944985E-2,7.690241E-2,8.3217725E-2,9.721029E-2,-3.8577776E-2,-3.3461947E-2,-3.253125E-2,-2.771758E-2,-4.6239448E-1,-2.771758E-2,-4.2921346E-1,-1.852187E-2,-3.089726E-1,-1.852187E-2,-3.089726E-1,-2.3956464E-1,-2.3956464E-1,-1.6778135E-1,-1.2934321E-1,-1.6147757E-1,-7.9374105E-2,-1.2934321E-1,-6.480086E-2,-3.339599E-2,-3.339599E-2,-1.161137E-2,4.9819346E-3,2.9998058E-2,3.2509428E-2,5.6887664E-2,6.918819E-2,7.690241E-2,7.690241E-2,8.975038E-2,9.3950465E-2,4.960403E-3,-2.5418652E-2,-2.3119723E-2,-2.3119723E-2,-1.9991271E-2,-1.698525E-2,-1.544863E-2,-1.544863E-2,-1.3713432E-2,-1.1978232E-2,-1.3713432E-2,-1.1978232E-2,-1.018365E-2,-8.389068E-3,-1.018365E-2,-6.467161E-3,-7.2705196E-3,-8.389068E-3,-7.2705196E-3,-6.467161E-3,-3.8243458E-3,-4.289855E-3,-6.467161E-3,-3.8243458E-3,-2.4549214E-3,-1.6697996E-3,-2.4549214E-3,-1.6697996E-3,-4.161763E-4,-1.6697996E-3,-4.161763E-4,8.744998E-4,-4.161763E-4,1.4999029E-3,8.744998E-4,1.4999029E-3,2.2349271E-3,3.1588066E-3,2.2349271E-3,3.652265E-3,3.1588066E-3,3.652265E-3,3.8451205E-3,4.16632E-3,3.8451205E-3,4.5107002E-3,4.16632E-3,4.5107002E-3,4.828963E-3],"categories":[],"categories_nodes":[],"categories_segments":[],"categories_sizes":[],"default_left":[0,0,0,0,0,0,0,0,0,0,0,0,0,0,0,0,0,0,0,0,0,0,0,0,0,0,0,0,0,0,0,0,0,0,0,0,0,0,0,0,0,0,0,0,0,0,0,0,0,0,0,0,0,0,0,0,0,0,0,0,0,0,0,0,0,0,0,0,0,0,0,0,0,0,0,0,0,0,0,0,0,0,0,0,0,0,0,0,0,0,0,0,0,0,0,0,0,0,0,0,0,0,0,0,0,0,0,0,0,0,0],"id":14,"left_children":[1,3,5,7,9,11,13,15,17,19,21,23,25,27,29,31,33,35,37,39,41,43,45,47,49,51,53,55,57,59,61,-1,-1,-1,-1,63,-1,65,-1,67,-1,69,71,73,75,77,79,81,83,85,87,89,91,93,95,97,99,101,103,105,107,109,-1,-1,-1,-1,-1,-1,-1,-1,-1,-1,-1,-1,-1,-1,-1,-1,-1,-1,-1,-1,-1,-1,-1,-1,-1,-1,-1,-1,-1,-1,-1,-1,-1,-1,-1,-1,-1,-1,-1,-1,-1,-1,-1,-1,-1,-1,-1,-1,-1],"loss_changes":[6.348444E2,1.11416016E2,9.1710266E1,1.5654358E1,3.1857086E1,1.5832245E1,8.850021E0,3.908722E0,1.6110794E1,8.241608E0,4.5408096E0,7.96583E0,3.5251462E0,2.4561348E0,7.644806E-1,5.1376343E-2,8.6704254E-1,1.19155884E-1,1.702385E-1,1.1027527E-1,1.4389153E0,2.5888786E0,3.7463093E-1,1.5578861E0,9.1512537E-1,1.9915295E-1,1.3921819E0,9.829674E-1,9.084892E-2,2.2353363E-1,9.831238E-2,0E0,0E0,0E0,0E0,1.5167236E-2,0E0,3.553257E-1,0E0,9.3512535E-3,0E0,3.8547325E-1,5.889988E-2,1.1255455E-1,5.326729E-1,3.27363E-2,2.0039654E-1,9.8535156E-1,6.374836E-1,4.24927E-1,2.153802E-2,6.0535908E-2,2.8755942E-1,1.2816362E0,8.042836E-2,3.4558034E-1,4.7085E-1,1.0896587E-1,5.411148E-3,4.4075966E-2,1.0669708E-2,1.1676788E-1,0E0,0E0,0E0,0E0,0E0,0E0,0E0,0E0,0E0,0E0,0E0,0E0,0E0,0E0,0E0,0E0,0E0,0E0,0E0,0E0,0E0,0E0,0E0,0E0,0E0,0E0,0E0,0E0,0E0,0E0,0E0,0E0,0E0,0E0,0E0,0E0,0E0,0E0,0E0,0E0,0E0,0E0,0E0,0E0,0E0,0E0,0E0,0E0,0E0],"parents":[2147483647,0,0,1,1,2,2,3,3,4,4,5,5,6,6,7,7,8,8,9,9,10,10,11,11,12,12,13,13,14,14,15,15,16,16,17,17,18,18,19,19,20,20,21,21,22,22,23,23,24,24,25,25,26,26,27,27,28,28,29,29,30,30,35,35,37,37,39,39,41,41,42,42,43,43,44,44,45,45,46,46,47,47,48,48,49,49,50,50,51,51,52,52,53,53,54,54,55,55,56,56,57,57,58,58,59,59,60,60,61,61],"right_children":[2,4,6,8,10,12,14,16,18,20,22,24,26,28,30,32,34,36,38,40,42,44,46,48,50,52,54,56,58,60,62,-1,-1,-1,-1,64,-1,66,-1,68,-1,70,72,74,76,78,80,82,84,86,88,90,92,94,96,98,100,102,104,106,108,110,-1,-1,-1,-1,-1,-1,-1,-1,-1,-1,-1,-1,-1,-1,-1,-1,-1,-1,-1,-1,-1,-1,-1,-1,-1,-1,-1,-1,-1,-1,-1,-1,-1,-1,-1,-1,-1,-1,-1,-1,-1,-1,-1,-1,-1,-1,-1,-1,-1],"split_conditions":[4.2E0,3E0,6.1E0,2.2E0,4.3E1,5E0,7.6E0,1.7E0,4.4E1,3.7E0,4.6E1,4.5E1,4.2E1,4.9E1,8.3E0,4.9E1,4.3E1,3.5E0,4.5E1,2.7E0,4E1,3.7E0,7.1E0,1E0,4.8E1,1E0,4.9E1,4.3E1,5.1E1,4.8E1,9.3E0,-4.3890744E-2,-4.3930948E-2,-4.3890744E-2,-4.3890744E-2,4E1,-4.3890744E-2,1.512E1,-4.3920547E-2,3.2E0,-4.4003267E-2,1E0,9E0,1E0,7.3E0,1E0,3.3E0,3.8E1,5E0,4.5E0,1E1,5.376E1,5.2E0,6.3E0,7.4E0,6.7E0,6.6E0,7E0,6.3E0,1E0,8.9E0,5E1,1.4255725E-1,-4.3911666E-2,-4.3890744E-2,-4.4128638E-2,-4.3902107E-2,-4.464698E-2,-4.496558E-2,-4.515126E-2,-3.5733778E-2,-4.4252906E-2,-5.205947E-2,-4.4993784E-2,-3.7196673E-2,-4.100951E-2,-4.163021E-2,-2.8405294E-2,-5.934539E-2,-3.758685E-2,-4.3684892E-2,-4.0515393E-2,-2.8812408E-2,-2.46706E-2,-4.737891E-2,-2.5375841E-2,-1.3035928E-2,-1.011866E-3,-2.1172773E-2,-1.7685076E-2,3.4702015E-3,-4.2076215E-2,2.1870153E-3,9.61314E-3,-7.0483806E-3,2.3976967E-2,9.885483E-3,5.399269E-3,2.3791937E-2,3.586797E-2,2.4673237E-2,4.9936816E-2,3.0548027E-2,4.410179E-2,6.169808E-2,5.1834065E-2,4.2653535E-2,7.463773E-2,5.3921092E-2,7.123314E-2,1.03178896E-1],"split_indices":[6,6,6,6,0,6,6,6,0,6,0,0,0,0,6,0,0,5,0,5,0,6,5,13,0,12,0,0,0,0,6,0,0,0,0,0,0,9,0,6,0,12,5,14,5,15,6,0,5,6,5,9,6,5,5,6,5,5,6,13,5,0,0,0,0,0,0,0,0,0,0,0,0,0,0,0,0,0,0,0,0,0,0,0,0,0,0,0,0,0,0,0,0,0,0,0,0,0,0,0,0,0,0,0,0,0,0,0,0,0,0],"split_type":[0,0,0,0,0,0,0,0,0,0,0,0,0,0,0,0,0,0,0,0,0,0,0,0,0,0,0,0,0,0,0,0,0,0,0,0,0,0,0,0,0,0,0,0,0,0,0,0,0,0,0,0,0,0,0,0,0,0,0,0,0,0,0,0,0,0,0,0,0,0,0,0,0,0,0,0,0,0,0,0,0,0,0,0,0,0,0,0,0,0,0,0,0,0,0,0,0,0,0,0,0,0,0,0,0,0,0,0,0,0,0],"sum_hessian":[5.0218E4,5.175E3,4.5043E4,1.661E3,3.514E3,1.1423E4,3.362E4,6.09E2,1.052E3,1.288E3,2.226E3,4.02E3,7.403E3,1.1907E4,2.1713E4,2.53E2,3.56E2,5.28E2,5.24E2,6.47E2,6.41E2,8.19E2,1.407E3,1.894E3,2.126E3,1.529E3,5.874E3,7.815E3,4.092E3,5.189E3,1.6524E4,2.24E2,2.9E1,1.59E2,1.97E2,4.9E1,4.79E2,8.8E1,4.36E2,2.2E1,6.25E2,3.01E2,3.4E2,3.89E2,4.3E2,1.029E3,3.78E2,7.02E2,1.192E3,9.28E2,1.198E3,1.108E3,4.21E2,3.873E3,2.001E3,2.386E3,5.429E3,1.625E3,2.467E3,2.546E3,2.643E3,6.297E3,1.0227E4,1.2E1,3.7E1,4.3E1,4.5E1,7E0,1.5E1,2.1E2,9.1E1,3.23E2,1.7E1,3.73E2,1.6E1,3.11E2,1.19E2,1.015E3,1.4E1,6.9E1,3.09E2,9.1E1,6.11E2,3.44E2,8.48E2,3.13E2,6.15E2,1.168E3,3E1,1.098E3,1E1,8.4E1,3.37E2,2.244E3,1.629E3,1.545E3,4.56E2,1.008E3,1.378E3,3.51E3,1.919E3,1.153E3,4.72E2,2.64E2,2.203E3,9.54E2,1.592E3,2.516E3,1.27E2,3.751E3,2.546E3],"tree_param":{"num_deleted":"0","num_feature":"16","num_nodes":"111","size_leaf_vector":"1"}},{"base_weights":[1.8682266E-2,-3.935639E-1,4.7985125E-2,-5.605574E-1,-3.0107376E-1,-4.796269E-2,7.7637546E-2,-6.991735E-1,-4.986618E-1,-3.4209335E-1,-2.3386502E-1,-1.1313768E-1,-1.5839973E-2,5.057968E-2,9.220338E-2,-3.9208334E-2,-6.545082E-1,-4.3081558E-1,-5.4714E-1,-2.879792E-1,-3.6619586E-1,-1.7278938E-1,-2.879792E-1,-7.019583E-2,-1.479384E-1,-3.6540926E-2,7.1938373E-3,2.8205808E-2,6.030053E-2,8.1603914E-2,9.6535824E-2,-2.9945884E-2,-3.5392858E-2,-2.154078E-2,-2.444889E-2,-5.768194E-1,-4.889778E-1,-1.4398959E-2,-1.6354376E-2,-4.2433155E-1,-3.341074E-1,-1.7278938E-1,-2.3038429E-1,-2.456026E-1,-1.4398959E-2,-6.448883E-2,-9.971509E-2,-1.21835165E-1,-1.7278938E-1,-4.8251998E-2,-1.4673544E-2,1.4837427E-2,-1.4673544E-2,3.8426124E-2,1.4837427E-2,6.488137E-2,4.425317E-2,8.557805E-2,7.139153E-2,9.2141494E-2,9.85694E-2,-2.621134E-2,-2.9945884E-2,-2.444889E-2,-2.9945884E-2,-2.154078E-2,-1.8960973E-2,-1.6354376E-2,-1.8574713E-2,-1.0568182E-2,-8.639469E-3,-8.639469E-3,-1.1519215E-2,-1.1519215E-2,-1.3339545E-2,-3.8753212E-3,-3.2244415E-3,-3.2244415E-3,-5.4533556E-3,-7.3656137E-3,-5.4533556E-3,-8.639469E-3,-7.3656137E-3,-7.3367724E-4,-2.9306274E-3,-7.3367724E-4,-3.2244415E-3,7.4187136E-4,4.0970745E-6,4.0970745E-6,-7.3367724E-4,1.5627468E-3,2.2126585E-3,1.2082407E-3,7.4187136E-4,3.562195E-3,2.9460692E-3,2.2126585E-3,2.7283635E-3,3.9242394E-3,4.3966384E-3,3.5695767E-3,3.9242394E-3,4.7677727E-3,4.4534937E-3,4.9501336E-3,4.7677727E-3],"categories":[],"categories_nodes":[],"categories_segments":[],"categories_sizes":[],"default_left":[0,0,0,0,0,0,0,0,0,0,0,0,0,0,0,0,0,0,0,0,0,0,0,0,0,0,0,0,0,0,0,0,0,0,0,0,0,0,0,0,0,0,0,0,0,0,0,0,0,0,0,0,0,0,0,0,0,0,0,0,0,0,0,0,0,0,0,0,0,0,0,0,0,0,0,0,0,0,0,0,0,0,0,0,0,0,0,0,0,0,0,0,0,0,0,0,0,0,0,0,0,0,0,0,0,0,0],"id":15,"left_children":[1,3,5,7,9,11,13,15,17,19,21,23,25,27,29,-1,31,33,35,37,39,41,43,45,47,49,51,53,55,57,59,-1,-1,-1,-1,61,63,-1,-1,65,67,69,71,73,-1,75,77,79,81,83,85,87,89,91,93,95,97,99,101,103,105,-1,-1,-1,-1,-1,-1,-1,-1,-1,-1,-1,-1,-1,-1,-1,-1,-1,-1,-1,-1,-1,-1,-1,-1,-1,-1,-1,-1,-1,-1,-1,-1,-1,-1,-1,-1,-1,-1,-1,-1,-1,-1,-1,-1,-1,-1],"loss_changes":[6.0523846E2,5.1186646E1,1.3308827E2,9.809784E0,5.8252563E0,2.3119898E1,1.4078827E1,8.648071E-1,